{"learner":{"attributes":{"scikit_learn":"{\"_estimator_type\": \"classifier\"}"},"feature_names":["B_18_last","B_18_sum","B_1_last","B_2_last","B_2_sum","B_37_last","B_9_last","D_111_min","D_42_min","D_43_sum","D_44_last","D_44_mean","D_45_sum","D_48_last","P_2_last","P_2_mean","P_2_min","R_1_last","R_2_last","R_3_mean","S_3_mean"],"feature_types":["float","float","float","float","float","float","float","float","float","float","float","float","float","float","float","float","float","float","float","float","float"],"gradient_booster":{"model":{"gbtree_model_param":{"num_parallel_tree":"1","num_trees":"100"},"iteration_indptr":[0,1,2,3,4,5,6,7,8,9,10,11,12,13,14,15,16,17,18,19,20,21,22,23,24,25,26,27,28,29,30,31,32,33,34,35,36,37,38,39,40,41,42,43,44,45,46,47,48,49,50,51,52,53,54,55,56,57,58,59,60,61,62,63,64,65,66,67,68,69,70,71,72,73,74,75,76,77,78,79,80,81,82,83,84,85,86,87,88,89,90,91,92,93,94,95,96,97,98,99,100],"tree_info":[0,0,0,0,0,0,0,0,0,0,0,0,0,0,0,0,0,0,0,0,0,0,0,0,0,0,0,0,0,0,0,0,0,0,0,0,0,0,0,0,0,0,0,0,0,0,0,0,0,0,0,0,0,0,0,0,0,0,0,0,0,0,0,0,0,0,0,0,0,0,0,0,0,0,0,0,0,0,0,0,0,0,0,0,0,0,0,0,0,0,0,0,0,0,0,0,0,0,0,0],"trees":[{"base_weights":[-8.657126E-2,1.8556863E0,-1.0469872E0,2.3475227E0,5.9268427E-1,-1.228173E0,9.753424E-2,2.948979E0,1.7371881E0,-3.202729E-1,1.2216357E0,-1.2644424E0,-7.185996E-2,7.822711E-1,-6.220864E-1,2.574094E0,3.404725E0,1.4922119E0,2.537957E0,-6.7873794E-1,9.216091E-1,2.014936E0,5.1679224E-1,-9.3784314E-1,-1.3238891E0,-2.541425E-1,1.2183505E0,4.6878153E-1,1.5048621E0,-2.4749535E-1,-1.0005132E0,2.7246106E0,1.9247198E0,3.4730096E0,2.9857197E0,6.8743044E-1,1.7175639E0,1.8905381E0,2.839845E0,-8.999368E-1,1.4368048E-1,1.1401352E0,-7.730849E-1,1.4172281E0,2.685116E0,7.713712E-1,-4.7691202E-1,-2.8204674E-1,-1.0323459E0,-1.0014278E0,-1.3343067E0,3.2024744E-1,-6.0523266E-1,3.0055732E-1,2.1926806E0,-1.294847E-1,7.36142E-1,1.0349793E0,2.071764E0,-4.6691808E-1,3.5759157E-1,-1.0300425E0,5.8412725E-1,1.7492698E-1,2.7873215E-1,1.4396423E-1,2.5727564E-1,8.698694E-2,3.4789488E-1,3.4010601E-3,3.0350924E-1,4.3058183E-2,1.535452E-1,1.1815218E-1,2.0494568E-1,1.3998619E-1,2.4235415E-1,3.0950198E-1,2.4163905E-1,-1.0124214E-1,3.4632832E-3,-1.820185E-2,1.3004383E-1,5.69829E-2,1.7565285E-1,-1.0165911E-1,6.178672E-2,9.518405E-2,2.0840947E-1,6.275152E-2,2.7700087E-1,4.7288727E-2,1.5188773E-1,-8.5543275E-2,5.0677773E-2,-7.389354E-2,2.361553E-2,-1.1608775E-1,-7.797185E-2,-1.0413593E-1,1.0954566E-1,-1.2469702E-1,-1.353004E-1,-3.9122134E-2,7.238306E-2,-1.1962153E-1,-3.4713913E-2,1.0415759E-1,-4.6243332E-2,2.837933E-1,7.933184E-2,-9.2449985E-2,6.61678E-3,5.9612412E-2,1.8678327E-1,-3.9619412E-2,1.20950475E-1,1.6820928E-1,2.6022914E-1,-6.49509E-2,2.792188E-2,1.2795542E-1,1.1160579E-2,-1.0523409E-1,3.859469E-2,-5.823065E-2,1.6244093E-1],"categories":[],"categories_nodes":[],"categories_segments":[],"categories_sizes":[],"default_left":[0,0,0,0,1,1,1,0,0,1,0,1,0,0,0,0,0,1,0,1,0,0,0,0,0,0,0,1,0,1,0,1,1,0,0,1,1,0,0,0,1,1,0,0,0,0,0,0,1,0,0,0,0,0,0,1,1,0,0,0,0,0,0,0,0,0,0,0,0,0,0,0,0,0,0,0,0,0,0,0,0,0,0,0,0,0,0,0,0,0,0,0,0,0,0,0,0,0,0,0,0,0,0,0,0,0,0,0,0,0,0,0,0,0,0,0,0,0,0,0,0,0,0,0,0,0,0],"id":0,"left_children":[1,3,5,7,9,11,13,15,17,19,21,23,25,27,29,31,33,35,37,39,41,43,45,47,49,51,53,55,57,59,61,63,65,67,69,71,73,75,77,79,81,83,85,87,89,91,93,95,97,99,101,103,105,107,109,111,113,115,117,119,121,123,125,-1,-1,-1,-1,-1,-1,-1,-1,-1,-1,-1,-1,-1,-1,-1,-1,-1,-1,-1,-1,-1,-1,-1,-1,-1,-1,-1,-1,-1,-1,-1,-1,-1,-1,-1,-1,-1,-1,-1,-1,-1,-1,-1,-1,-1,-1,-1,-1,-1,-1,-1,-1,-1,-1,-1,-1,-1,-1,-1,-1,-1,-1,-1,-1],"loss_changes":[1.9027469E4,2.0951465E3,1.4154844E3,8.864492E2,5.4432104E2,2.4703418E2,4.605896E2,1.9999023E2,2.3316895E2,1.7299109E2,3.1269006E2,1.0968262E2,4.2705257E1,1.0777991E2,6.436897E1,6.068213E1,5.319824E0,1.6700732E2,4.965747E1,5.489354E1,3.315663E1,1.0179846E2,7.5868965E1,5.444525E1,1.4892578E1,3.221352E1,1.9450611E1,5.3752846E1,3.633484E1,3.0757877E1,1.1196915E1,2.846875E1,3.7264038E1,4.168457E0,1.2133789E1,4.389044E1,1.2635547E2,2.0805298E1,1.3053345E1,2.4988419E1,2.460088E1,2.6278458E1,4.2015557E0,4.1921326E1,1.9775574E1,5.2376434E1,2.33273E1,2.6838219E1,2.4148743E1,1.4135666E1,5.9501953E0,1.7766422E1,1.4668377E1,7.6840987E0,7.4545517E0,1.6309788E1,3.5648132E1,2.070694E1,8.950562E0,2.3276737E1,1.3891625E1,7.4359894E0,6.7464375E0,0E0,0E0,0E0,0E0,0E0,0E0,0E0,0E0,0E0,0E0,0E0,0E0,0E0,0E0,0E0,0E0,0E0,0E0,0E0,0E0,0E0,0E0,0E0,0E0,0E0,0E0,0E0,0E0,0E0,0E0,0E0,0E0,0E0,0E0,0E0,0E0,0E0,0E0,0E0,0E0,0E0,0E0,0E0,0E0,0E0,0E0,0E0,0E0,0E0,0E0,0E0,0E0,0E0,0E0,0E0,0E0,0E0,0E0,0E0,0E0,0E0,0E0,0E0,0E0],"parents":[2147483647,0,0,1,1,2,2,3,3,4,4,5,5,6,6,7,7,8,8,9,9,10,10,11,11,12,12,13,13,14,14,15,15,16,16,17,17,18,18,19,19,20,20,21,21,22,22,23,23,24,24,25,25,26,26,27,27,28,28,29,29,30,30,31,31,32,32,33,33,34,34,35,35,36,36,37,37,38,38,39,39,40,40,41,41,42,42,43,43,44,44,45,45,46,46,47,47,48,48,49,49,50,50,51,51,52,52,53,53,54,54,55,55,56,56,57,57,58,58,59,59,60,60,61,61,62,62],"right_children":[2,4,6,8,10,12,14,16,18,20,22,24,26,28,30,32,34,36,38,40,42,44,46,48,50,52,54,56,58,60,62,64,66,68,70,72,74,76,78,80,82,84,86,88,90,92,94,96,98,100,102,104,106,108,110,112,114,116,118,120,122,124,126,-1,-1,-1,-1,-1,-1,-1,-1,-1,-1,-1,-1,-1,-1,-1,-1,-1,-1,-1,-1,-1,-1,-1,-1,-1,-1,-1,-1,-1,-1,-1,-1,-1,-1,-1,-1,-1,-1,-1,-1,-1,-1,-1,-1,-1,-1,-1,-1,-1,-1,-1,-1,-1,-1,-1,-1,-1,-1,-1,-1,-1,-1,-1,-1],"split_conditions":[5.2997965E-1,3.295659E-1,1.4283852E-1,3.3445233E-1,6.228584E-2,7.5821064E-2,6.466959E-1,9.994442E-3,2.5981012E-1,1.1092296E-1,3.7320408E-1,6.6045225E-1,3.4273678E-1,5.599085E-1,7.471947E-1,1.7106863E0,2.4110639E-1,9.968654E-3,1.9173865E-1,2.7966616E-1,1.1356876E1,9.960827E-3,2.7982402E0,2.1028267E-1,1.5926999E-1,5.9577376E-1,2.8785113E-1,1.5778932E-1,7.587649E-1,2.4739414E-1,5.0607795E-1,1.4571568E-1,2.5717974E-1,1.169419E-3,6.272388E-2,1.05116144E-1,1.8933895E-1,3.463946E-1,3.652826E-2,6.787129E-2,5.48336E-1,2.7966616E-1,5.196571E-1,2.820582E-1,1.2665315E-1,5.784666E-2,3.8230646E-1,1.7180218E-1,2.499883E-2,9.994442E-3,7.5769544E0,6.2727723E-3,1.7423709E-1,8.162601E-1,1.0011369E0,4.589241E-3,1.2239174E-1,1.3472538E-1,9.142727E-3,6.386872E-1,2.404046E-2,9.904832E-3,4.2137983E-1,1.7492698E-1,2.7873215E-1,1.4396423E-1,2.5727564E-1,8.698694E-2,3.4789488E-1,3.4010601E-3,3.0350924E-1,4.3058183E-2,1.535452E-1,1.1815218E-1,2.0494568E-1,1.3998619E-1,2.4235415E-1,3.0950198E-1,2.4163905E-1,-1.0124214E-1,3.4632832E-3,-1.820185E-2,1.3004383E-1,5.69829E-2,1.7565285E-1,-1.0165911E-1,6.178672E-2,9.518405E-2,2.0840947E-1,6.275152E-2,2.7700087E-1,4.7288727E-2,1.5188773E-1,-8.5543275E-2,5.0677773E-2,-7.389354E-2,2.361553E-2,-1.1608775E-1,-7.797185E-2,-1.0413593E-1,1.0954566E-1,-1.2469702E-1,-1.353004E-1,-3.9122134E-2,7.238306E-2,-1.1962153E-1,-3.4713913E-2,1.0415759E-1,-4.6243332E-2,2.837933E-1,7.933184E-2,-9.2449985E-2,6.61678E-3,5.9612412E-2,1.8678327E-1,-3.9619412E-2,1.20950475E-1,1.6820928E-1,2.6022914E-1,-6.49509E-2,2.792188E-2,1.2795542E-1,1.1160579E-2,-1.0523409E-1,3.859469E-2,-5.823065E-2,1.6244093E-1],"split_indices":[14,3,2,14,11,8,14,18,17,8,14,14,8,5,14,12,14,10,20,20,4,17,12,0,3,14,20,20,9,20,17,20,10,17,16,8,20,5,3,2,13,20,19,19,20,2,10,20,11,18,1,10,20,3,0,10,8,20,17,2,3,18,2,0,0,0,0,0,0,0,0,0,0,0,0,0,0,0,0,0,0,0,0,0,0,0,0,0,0,0,0,0,0,0,0,0,0,0,0,0,0,0,0,0,0,0,0,0,0,0,0,0,0,0,0,0,0,0,0,0,0,0,0,0,0,0,0],"split_type":[0,0,0,0,0,0,0,0,0,0,0,0,0,0,0,0,0,0,0,0,0,0,0,0,0,0,0,0,0,0,0,0,0,0,0,0,0,0,0,0,0,0,0,0,0,0,0,0,0,0,0,0,0,0,0,0,0,0,0,0,0,0,0,0,0,0,0,0,0,0,0,0,0,0,0,0,0,0,0,0,0,0,0,0,0,0,0,0,0,0,0,0,0,0,0,0,0,0,0,0,0,0,0,0,0,0,0,0,0,0,0,0,0,0,0,0,0,0,0,0,0,0,0,0,0,0,0],"sum_hessian":[1.0198303E4,3.3740332E3,6.82427E3,2.42776E3,9.4627325E2,5.891526E3,9.327437E2,1.2208438E3,1.2069163E3,3.8618933E2,5.600839E2,5.7122593E3,1.7926666E2,4.7791177E2,4.5483194E2,6.7349347E2,5.473503E2,9.263769E2,2.805394E2,3.0003787E2,8.615146E1,2.6263263E2,2.9745132E2,8.8220685E2,4.8300527E3,1.5777853E2,2.1488123E1,3.3445865E2,1.4345312E2,2.2940561E2,2.2542633E2,5.441668E2,1.2932666E2,4.6438223E2,8.296803E1,2.0354028E2,7.228366E2,9.152349E1,1.890159E2,2.3636935E2,6.3668514E1,7.660118E1,9.550277E0,1.4046866E2,1.2216396E2,2.3696625E2,6.048509E1,1.11618866E2,7.7058795E2,1.5419717E2,4.6758555E3,5.9888195E1,9.789034E1,1.1738882E1,9.749241E0,1.03461334E2,2.3099733E2,7.998357E1,6.346955E1,1.685226E2,6.0883015E1,2.2164601E2,3.780318E0,3.4619755E1,5.0954706E2,7.580532E1,5.3521343E1,1.3927487E0,4.6298947E2,1.3927487E0,8.157528E1,1.573806E2,4.615967E1,2.7815182E2,4.4468478E2,4.954206E1,4.1981426E1,1.1400643E2,7.500947E1,2.1090195E2,2.5467405E1,5.0337917E1,1.3330595E1,4.078764E1,3.5813538E1,8.356492E0,1.1937846E0,8.416182E1,5.6306843E1,5.1730666E0,1.1699089E2,1.7051224E2,6.645401E1,4.3772102E1,1.6712984E1,5.909234E1,5.2526524E1,5.0835327E2,2.6223468E2,1.5180962E2,2.3875692E0,8.3644507E2,3.8394104E3,2.1687088E1,3.8201107E1,2.8650831E1,6.923951E1,5.769959E0,5.968923E0,5.968923E0,3.780318E0,1.9697447E1,8.3763885E1,2.0692267E2,2.4074657E1,8.555456E0,7.1428116E1,3.8996964E1,2.4472586E1,1.3549455E2,3.302804E1,1.1937846E1,4.894517E1,2.1846259E2,3.1834257E0,1.9896411E0,1.790677E0],"tree_param":{"num_deleted":"0","num_feature":"21","num_nodes":"127","size_leaf_vector":"1"}},{"base_weights":[-9.1184996E-2,1.5437956E0,-1.0041212E0,3.4057742E-1,1.884307E0,-1.17467E0,6.0345218E-2,-1.6834739E-1,1.3473543E0,2.3892133E0,1.4499689E0,-1.2116219E0,-6.785653E-2,6.079158E-1,-6.400308E-1,-5.16341E-1,7.368795E-1,1.837694E0,4.317536E-1,2.0081813E0,2.641535E0,1.8663485E0,1.0351322E0,-7.7390933E-1,-1.2580646E0,-2.4564387E-1,1.0438523E0,4.303922E-1,1.4441372E0,-3.6250854E-1,-9.8198676E-1,1.2032053E0,-6.798992E-1,1.352869E-1,1.2214639E0,1.418457E0,2.3572626E0,-1.14928156E-1,1.0225533E0,1.3989624E0,2.134866E0,2.7473142E0,2.3976502E0,1.439585E0,2.0959754E0,6.178319E-1,1.4273858E0,-1.0372503E0,-3.7437895E-1,-8.7115085E-1,-1.2727908E0,1.2114964E-1,-5.956042E-1,1.7422341E0,7.9246625E-2,-4.2071253E-2,7.194051E-1,9.5734763E-1,1.7500621E0,-4.7638446E-1,6.777547E-1,-1.0181754E0,2.8401652E-1,4.7976185E-2,2.008181E-1,-3.797264E-2,-1.043607E-1,5.474884E-2,-6.335144E-2,1.6042732E-1,7.1644865E-2,1.0029944E-1,1.9385813E-1,2.3953553E-1,2.9302021E-2,-2.3245504E-2,1.4556733E-1,1.6156302E-1,2.5975758E-2,2.1768501E-1,9.733351E-2,1.8251586E-1,2.349428E-1,7.9266645E-2,2.7524278E-1,2.7227804E-1,2.15959E-1,1.23651005E-1,2.2556512E-1,2.4609776E-2,2.1339527E-1,2.3838729E-2,1.0692352E-1,1.1319035E-1,1.9432569E-1,-2.4244314E-2,-1.117537E-1,5.674373E-2,-4.9630392E-2,-9.850591E-2,6.081644E-3,-1.174214E-1,-1.3041715E-1,-2.6247418E-2,5.5063363E-2,-6.732502E-2,1.36719E-1,1.878769E-1,1.3172606E-2,8.971804E-2,-8.3238E-2,-6.932334E-2,1.8740749E-2,5.7858825E-2,1.727004E-1,-1.112012E-2,1.11773394E-1,4.8481192E-2,1.8880245E-1,-6.560451E-2,-1.4033307E-3,2.3419505E-2,2.2149618E-1,-4.0083643E-2,-1.0854428E-1,1.3156213E-1,-5.0980527E-2],"categories":[],"categories_nodes":[],"categories_segments":[],"categories_sizes":[],"default_left":[0,0,0,1,0,1,1,1,0,0,0,0,0,0,0,0,1,0,1,1,0,1,0,1,1,0,0,0,0,1,0,0,0,0,0,0,0,0,0,0,0,0,0,0,0,0,1,0,0,1,1,0,0,0,0,1,0,0,0,0,0,0,1,0,0,0,0,0,0,0,0,0,0,0,0,0,0,0,0,0,0,0,0,0,0,0,0,0,0,0,0,0,0,0,0,0,0,0,0,0,0,0,0,0,0,0,0,0,0,0,0,0,0,0,0,0,0,0,0,0,0,0,0,0,0,0,0],"id":1,"left_children":[1,3,5,7,9,11,13,15,17,19,21,23,25,27,29,31,33,35,37,39,41,43,45,47,49,51,53,55,57,59,61,63,65,67,69,71,73,75,77,79,81,83,85,87,89,91,93,95,97,99,101,103,105,107,109,111,113,115,117,119,121,123,125,-1,-1,-1,-1,-1,-1,-1,-1,-1,-1,-1,-1,-1,-1,-1,-1,-1,-1,-1,-1,-1,-1,-1,-1,-1,-1,-1,-1,-1,-1,-1,-1,-1,-1,-1,-1,-1,-1,-1,-1,-1,-1,-1,-1,-1,-1,-1,-1,-1,-1,-1,-1,-1,-1,-1,-1,-1,-1,-1,-1,-1,-1,-1,-1],"loss_changes":[1.5118209E4,1.4862559E3,1.1799873E3,4.1101135E2,6.168096E2,2.290293E2,3.449597E2,1.6841548E2,1.2011301E2,1.20296875E2,2.6113696E2,1.0922412E2,3.6236427E1,7.43094E1,3.710295E1,1.09348015E2,4.3135277E1,3.4791565E1,3.0875193E1,3.7503662E1,1.3606934E1,7.1346924E1,1.2436578E2,5.4595184E1,2.6805664E1,2.03217E1,1.6898294E1,5.7078873E1,1.1424728E1,2.6321754E1,8.363876E0,1.8765411E1,3.8143875E1,2.170294E1,1.4730675E1,1.9535995E1,5.3269653E0,9.634462E0,2.0331654E1,2.8743988E1,2.4446777E1,3.2070312E0,1.3056885E1,4.1734314E1,3.3981934E1,6.3549255E1,5.7805542E1,1.9792786E1,2.4301638E1,1.9465836E1,1.3061523E1,1.2971862E1,1.3249477E1,2.9675674E0,9.447026E0,2.3965824E1,3.5788773E1,6.3207245E0,8.303192E0,1.6471542E1,1.4527847E1,6.6895294E0,5.322014E0,0E0,0E0,0E0,0E0,0E0,0E0,0E0,0E0,0E0,0E0,0E0,0E0,0E0,0E0,0E0,0E0,0E0,0E0,0E0,0E0,0E0,0E0,0E0,0E0,0E0,0E0,0E0,0E0,0E0,0E0,0E0,0E0,0E0,0E0,0E0,0E0,0E0,0E0,0E0,0E0,0E0,0E0,0E0,0E0,0E0,0E0,0E0,0E0,0E0,0E0,0E0,0E0,0E0,0E0,0E0,0E0,0E0,0E0,0E0,0E0,0E0,0E0,0E0,0E0],"parents":[2147483647,0,0,1,1,2,2,3,3,4,4,5,5,6,6,7,7,8,8,9,9,10,10,11,11,12,12,13,13,14,14,15,15,16,16,17,17,18,18,19,19,20,20,21,21,22,22,23,23,24,24,25,25,26,26,27,27,28,28,29,29,30,30,31,31,32,32,33,33,34,34,35,35,36,36,37,37,38,38,39,39,40,40,41,41,42,42,43,43,44,44,45,45,46,46,47,47,48,48,49,49,50,50,51,51,52,52,53,53,54,54,55,55,56,56,57,57,58,58,59,59,60,60,61,61,62,62],"right_children":[2,4,6,8,10,12,14,16,18,20,22,24,26,28,30,32,34,36,38,40,42,44,46,48,50,52,54,56,58,60,62,64,66,68,70,72,74,76,78,80,82,84,86,88,90,92,94,96,98,100,102,104,106,108,110,112,114,116,118,120,122,124,126,-1,-1,-1,-1,-1,-1,-1,-1,-1,-1,-1,-1,-1,-1,-1,-1,-1,-1,-1,-1,-1,-1,-1,-1,-1,-1,-1,-1,-1,-1,-1,-1,-1,-1,-1,-1,-1,-1,-1,-1,-1,-1,-1,-1,-1,-1,-1,-1,-1,-1,-1,-1,-1,-1,-1,-1,-1,-1,-1,-1,-1,-1,-1,-1],"split_conditions":[5.2997965E-1,4.9823802E-2,1.5190452E-1,2.5192592E-1,3.1958833E-1,7.4902326E-2,6.5409356E-1,1.05116144E-1,4.0412015E-1,2.5981012E-1,4.1282814E-2,6.227923E-1,3.2508084E-1,7.388173E-1,7.621746E-1,9.131754E-2,2.3530944E-1,2.5345457E-1,1.941279E-1,1.7003667E-1,2.061601E-1,1.9301483E-1,1.5157233E-1,5.0018866E-2,1.5926999E-1,6.2022166E0,6.3339204E-1,1.7003667E-1,5.3105307E-1,2.9324982E-2,5.004294E-1,8.952118E-2,8.444003E0,8.1985575E-1,3.9520028E-1,3.2742986E-1,8.352428E0,5.8607154E0,9.3475294E-1,1.9561481E-1,6.051439E-1,3.4116704E-3,2.693048E-2,2.81964E0,1.5933706E-1,2.2431731E-1,3.7511364E-1,1.49699E-1,8.0543794E-2,3.2948712E-1,6.842817E-1,1.1742406E-1,2.5023234E-1,1.0090024E0,6.9869965E-2,7.3726447E-3,2.5981012E-1,3.835263E-2,1.2833266E-1,5.459027E-1,1.2903365E-1,9.587166E-2,3.535128E-3,4.7976185E-2,2.008181E-1,-3.797264E-2,-1.043607E-1,5.474884E-2,-6.335144E-2,1.6042732E-1,7.1644865E-2,1.0029944E-1,1.9385813E-1,2.3953553E-1,2.9302021E-2,-2.3245504E-2,1.4556733E-1,1.6156302E-1,2.5975758E-2,2.1768501E-1,9.733351E-2,1.8251586E-1,2.349428E-1,7.9266645E-2,2.7524278E-1,2.7227804E-1,2.15959E-1,1.23651005E-1,2.2556512E-1,2.4609776E-2,2.1339527E-1,2.3838729E-2,1.0692352E-1,1.1319035E-1,1.9432569E-1,-2.4244314E-2,-1.117537E-1,5.674373E-2,-4.9630392E-2,-9.850591E-2,6.081644E-3,-1.174214E-1,-1.3041715E-1,-2.6247418E-2,5.5063363E-2,-6.732502E-2,1.36719E-1,1.878769E-1,1.3172606E-2,8.971804E-2,-8.3238E-2,-6.932334E-2,1.8740749E-2,5.7858825E-2,1.727004E-1,-1.112012E-2,1.11773394E-1,4.8481192E-2,1.8880245E-1,-6.560451E-2,-1.4033307E-3,2.3419505E-2,2.2149618E-1,-4.0083643E-2,-1.0854428E-1,1.3156213E-1,-5.0980527E-2],"split_indices":[14,2,2,10,14,8,14,8,14,17,3,14,8,2,14,16,20,17,20,20,14,20,19,11,3,4,14,20,6,8,17,19,1,3,14,19,12,9,12,14,6,19,3,9,13,20,10,3,3,20,16,9,17,3,12,10,17,8,20,2,10,0,10,0,0,0,0,0,0,0,0,0,0,0,0,0,0,0,0,0,0,0,0,0,0,0,0,0,0,0,0,0,0,0,0,0,0,0,0,0,0,0,0,0,0,0,0,0,0,0,0,0,0,0,0,0,0,0,0,0,0,0,0,0,0,0,0],"split_type":[0,0,0,0,0,0,0,0,0,0,0,0,0,0,0,0,0,0,0,0,0,0,0,0,0,0,0,0,0,0,0,0,0,0,0,0,0,0,0,0,0,0,0,0,0,0,0,0,0,0,0,0,0,0,0,0,0,0,0,0,0,0,0,0,0,0,0,0,0,0,0,0,0,0,0,0,0,0,0,0,0,0,0,0,0,0,0,0,0,0,0,0,0,0,0,0,0,0,0,0,0,0,0,0,0,0,0,0,0,0,0,0,0,0,0,0,0,0,0,0,0,0,0,0,0,0,0],"sum_hessian":[1.0126512E4,3.6281516E3,6.4983604E3,8.0072833E2,2.8274233E3,5.600884E3,8.974767E2,5.324222E2,2.6830615E2,1.3054136E3,1.5220098E3,5.4198423E3,1.8104109E2,5.0375842E2,3.937183E2,3.8488977E2,1.4753238E2,1.7407509E2,9.4231064E1,5.236326E2,7.81781E2,7.578463E2,7.641634E2,5.21594E2,4.8982485E3,1.5675195E2,2.4289137E1,4.1679138E2,8.696704E1,2.184722E2,1.752461E2,3.2877758E1,3.5201202E2,6.6390434E1,8.1141945E1,9.840373E1,7.567136E1,4.9361294E1,4.486977E1,9.221563E1,4.3141702E2,5.3812E2,2.4366101E2,2.6766257E2,4.9018372E2,3.7150827E2,3.9265515E2,3.1341672E2,2.081773E2,1.8180093E2,4.7164478E3,7.685453E1,7.989743E1,1.3621155E1,1.0667982E1,1.5851448E2,2.582769E2,3.515598E1,5.181106E1,1.9740468E2,2.1067514E1,1.7056622E2,4.6798687E0,1.8156363E1,1.4721395E1,1.9397005E2,1.5804196E2,4.3405796E1,2.298464E1,4.4917282E1,3.6224663E1,5.633393E1,4.20698E1,7.414275E1,1.5286046E0,4.6717457E1,2.6438348E0,2.4614138E1,2.0255632E1,3.1157286E1,6.1058346E1,1.8045184E2,2.5096516E2,1.8111882E0,5.363088E2,9.858351E1,1.450775E2,2.1634193E2,5.1320633E1,1.0011272E1,4.8017245E2,2.0267229E2,1.68836E2,2.5168716E2,1.4096797E2,2.9123661E1,2.8429303E2,2.3442255E1,1.8473506E2,1.6194989E2,1.9851036E1,1.1481515E3,3.5682961E3,4.08E1,3.6054527E1,7.7489044E1,2.408387E0,1.2403084E1,1.218071E0,5.6312943E0,5.0366883E0,4.0779335E1,1.17735146E2,2.279886E2,3.02883E1,4.6281734E0,3.0527807E1,5.537827E0,4.6273235E1,1.4186124E2,5.5543438E1,1.7244097E1,3.8234165E0,1.7443104E1,1.5312311E2,1.7492801E0,2.9305887E0],"tree_param":{"num_deleted":"0","num_feature":"21","num_nodes":"127","size_leaf_vector":"1"}},{"base_weights":[-8.618855E-2,1.2483253E0,-1.0061957E0,1.795265E-1,1.5528238E0,-1.1530043E0,-7.804851E-2,-4.397544E-1,8.061263E-1,1.867257E0,9.9850017E-1,-1.1828158E0,-1.4562081E-1,3.9547053E-1,-6.3325953E-1,-7.2966594E-1,4.7912392E-1,1.4120384E0,2.2703889E-1,1.6376541E0,2.2772553E0,1.3595841E0,5.610875E-1,-9.195782E-1,-1.2368258E0,-5.062407E-1,4.2401263E-1,7.5273894E-2,7.79491E-1,-3.5945645E-1,-9.2811084E-1,-8.9106756E-1,-4.8977748E-2,-6.633673E-2,1.0078564E0,1.0516585E0,1.9829447E0,4.7282457E-1,-4.712635E-1,1.2694317E0,1.8526999E0,2.2827647E0,-4.20412E-2,1.2012911E0,1.882383E0,-1.4527681E-1,7.8217417E-1,-9.7552997E-1,9.563027E-2,-8.918487E-1,-1.2459637E0,-1.9637553E-1,-8.329469E-1,8.868952E-1,-4.1451386E-1,-1.7435369E-1,5.824734E-1,1.1587999E0,3.519666E-1,-4.680905E-1,6.301673E-1,-9.471538E-1,8.832042E-2,1.157494E-1,-9.262516E-2,1.4013563E-1,-3.26966E-2,-4.4928484E-2,6.2185407E-2,1.1489885E-1,-7.074485E-2,1.21096075E-1,-1.1558349E-2,2.092996E-1,5.9179157E-2,2.259366E-2,1.05716504E-1,-6.26735E-2,3.0698985E-2,8.9632235E-2,1.5340051E-1,-2.8737504E-2,1.873305E-1,2.2873807E-1,3.7507262E-2,1.006368E-1,1.6975741E-1,1.9061232E-1,-1.629321E-2,-4.0742856E-2,1.20269775E-1,6.750064E-2,1.8354635E-1,-1.0844699E-1,-6.6363685E-2,1.4445661E-1,-1.8770762E-2,-9.958656E-2,1.17843505E-2,-1.0415401E-1,-1.2549698E-1,-6.777833E-2,2.2322433E-2,-1.7744072E-2,-1.0525169E-1,-4.661679E-2,1.1035484E-1,-8.228939E-2,1.1849295E-1,-2.954684E-2,1.1166989E-1,-3.6430098E-2,8.329328E-2,1.0538866E-1,2.355485E-1,1.1175297E-2,1.3550109E-1,-6.0481757E-2,2.4354627E-2,2.0907144E-1,2.5664685E-2,5.5664863E-2,-9.6600875E-2],"categories":[],"categories_nodes":[],"categories_segments":[],"categories_sizes":[],"default_left":[0,0,0,1,0,1,1,1,0,0,0,1,0,1,0,0,1,0,0,0,0,1,1,0,0,0,0,0,0,0,0,0,0,0,0,0,0,0,0,0,0,0,0,0,0,1,0,1,0,1,0,0,0,0,0,1,1,0,1,0,0,0,0,0,0,0,0,0,0,0,0,0,0,0,0,0,0,0,0,0,0,0,0,0,0,0,0,0,0,0,0,0,0,0,0,0,0,0,0,0,0,0,0,0,0,0,0,0,0,0,0,0,0,0,0,0,0,0,0,0,0,0,0],"id":2,"left_children":[1,3,5,7,9,11,13,15,17,19,21,23,25,27,29,31,33,35,37,39,41,43,45,47,49,51,53,55,57,59,61,63,65,67,69,71,73,75,77,79,81,83,-1,85,87,89,91,93,95,97,99,101,103,105,107,109,111,113,115,117,119,121,-1,-1,-1,-1,-1,-1,-1,-1,-1,-1,-1,-1,-1,-1,-1,-1,-1,-1,-1,-1,-1,-1,-1,-1,-1,-1,-1,-1,-1,-1,-1,-1,-1,-1,-1,-1,-1,-1,-1,-1,-1,-1,-1,-1,-1,-1,-1,-1,-1,-1,-1,-1,-1,-1,-1,-1,-1,-1,-1,-1,-1],"loss_changes":[1.2281627E4,1.3282241E3,8.0672705E2,3.520139E2,5.5185205E2,1.533623E2,2.131323E2,1.21939545E2,1.5785858E2,1.8697998E2,1.811803E2,6.945703E1,3.0634228E1,5.3753716E1,2.9787292E1,3.8118546E1,3.1811934E1,4.320114E1,3.9990166E1,1.0076196E2,1.1731201E1,4.990222E1,8.1730484E1,4.8331543E1,1.18671875E1,9.062355E0,2.2860332E1,3.0457233E1,3.1843033E1,2.1268248E1,7.0112305E0,2.130568E1,2.772721E1,1.4805049E1,1.4358662E1,2.5626312E1,1.1628906E1,2.4557415E1,7.551647E0,4.6332275E1,3.669336E1,5.5114746E0,0E0,4.5364075E1,7.338196E0,4.4812546E1,4.3708878E1,2.6630798E1,1.7573471E1,1.1644951E1,6.0722656E0,9.863579E0,6.153757E0,1.1553419E1,1.48832855E1,2.5574446E1,1.9110096E1,1.0693283E1,2.2722216E1,1.7307575E1,1.0223358E1,5.5743713E0,0E0,0E0,0E0,0E0,0E0,0E0,0E0,0E0,0E0,0E0,0E0,0E0,0E0,0E0,0E0,0E0,0E0,0E0,0E0,0E0,0E0,0E0,0E0,0E0,0E0,0E0,0E0,0E0,0E0,0E0,0E0,0E0,0E0,0E0,0E0,0E0,0E0,0E0,0E0,0E0,0E0,0E0,0E0,0E0,0E0,0E0,0E0,0E0,0E0,0E0,0E0,0E0,0E0,0E0,0E0,0E0,0E0,0E0,0E0,0E0,0E0],"parents":[2147483647,0,0,1,1,2,2,3,3,4,4,5,5,6,6,7,7,8,8,9,9,10,10,11,11,12,12,13,13,14,14,15,15,16,16,17,17,18,18,19,19,20,20,21,21,22,22,23,23,24,24,25,25,26,26,27,27,28,28,29,29,30,30,31,31,32,32,33,33,34,34,35,35,36,36,37,37,38,38,39,39,40,40,41,41,43,43,44,44,45,45,46,46,47,47,48,48,49,49,50,50,51,51,52,52,53,53,54,54,55,55,56,56,57,57,58,58,59,59,60,60,61,61],"right_children":[2,4,6,8,10,12,14,16,18,20,22,24,26,28,30,32,34,36,38,40,42,44,46,48,50,52,54,56,58,60,62,64,66,68,70,72,74,76,78,80,82,84,-1,86,88,90,92,94,96,98,100,102,104,106,108,110,112,114,116,118,120,122,-1,-1,-1,-1,-1,-1,-1,-1,-1,-1,-1,-1,-1,-1,-1,-1,-1,-1,-1,-1,-1,-1,-1,-1,-1,-1,-1,-1,-1,-1,-1,-1,-1,-1,-1,-1,-1,-1,-1,-1,-1,-1,-1,-1,-1,-1,-1,-1,-1,-1,-1,-1,-1,-1,-1,-1,-1,-1,-1,-1,-1],"split_conditions":[5.5598027E-1,4.8567597E-2,1.4283852E-1,9.3212254E-2,4.0412015E-1,7.4902326E-2,6.6375804E-1,1.0043763E-1,3.7320408E-1,9.994442E-3,5.046472E-2,6.849915E-1,1.8366861E-1,2.0632887E-1,7.093704E-1,2.1567817E0,2.4511881E-1,5.013079E-1,2.542341E0,1.2759376E-1,6.973061E-1,3.63151E-1,2.499883E-2,2.5023234E-1,1.3549526E-1,6.501837E0,8.996834E-1,5.308457E-1,4.1282814E-2,4.2603156E-1,5.0898427E-1,-3.9429795E-2,3.071041E-1,5.395447E-2,1.1873058E1,2.3945603E0,1.2291844E1,3.7728414E-1,2.5197354E-1,5.9822005E-1,1.7038278E-1,6.9630235E-1,-4.20412E-2,2.5345457E-1,3.7797844E-1,1.5728156E-1,4.78984E0,2.019337E-1,4.8737206E-2,3.63151E-1,5.7870734E-1,8.745306E-2,6.490644E-1,8.122056E-2,3.718671E-1,5.0034356E-1,7.3726447E-3,9.952536E-3,6.165445E-2,6.3866836E-1,4.5270726E-1,2.0828457E-3,8.832042E-2,1.157494E-1,-9.262516E-2,1.4013563E-1,-3.26966E-2,-4.4928484E-2,6.2185407E-2,1.1489885E-1,-7.074485E-2,1.21096075E-1,-1.1558349E-2,2.092996E-1,5.9179157E-2,2.259366E-2,1.05716504E-1,-6.26735E-2,3.0698985E-2,8.9632235E-2,1.5340051E-1,-2.8737504E-2,1.873305E-1,2.2873807E-1,3.7507262E-2,1.006368E-1,1.6975741E-1,1.9061232E-1,-1.629321E-2,-4.0742856E-2,1.20269775E-1,6.750064E-2,1.8354635E-1,-1.0844699E-1,-6.6363685E-2,1.4445661E-1,-1.8770762E-2,-9.958656E-2,1.17843505E-2,-1.0415401E-1,-1.2549698E-1,-6.777833E-2,2.2322433E-2,-1.7744072E-2,-1.0525169E-1,-4.661679E-2,1.1035484E-1,-8.228939E-2,1.1849295E-1,-2.954684E-2,1.1166989E-1,-3.6430098E-2,8.329328E-2,1.0538866E-1,2.355485E-1,1.1175297E-2,1.3550109E-1,-6.0481757E-2,2.4354627E-2,2.0907144E-1,2.5664685E-2,5.5664863E-2,-9.6600875E-2],"split_indices":[14,2,2,11,14,8,14,8,14,18,3,14,8,20,16,9,20,17,12,19,15,20,11,17,3,1,3,2,3,20,17,16,14,11,4,12,4,10,17,6,13,0,0,17,0,8,9,20,3,20,16,9,0,19,20,10,10,18,8,5,4,3,0,0,0,0,0,0,0,0,0,0,0,0,0,0,0,0,0,0,0,0,0,0,0,0,0,0,0,0,0,0,0,0,0,0,0,0,0,0,0,0,0,0,0,0,0,0,0,0,0,0,0,0,0,0,0,0,0,0,0,0,0],"split_type":[0,0,0,0,0,0,0,0,0,0,0,0,0,0,0,0,0,0,0,0,0,0,0,0,0,0,0,0,0,0,0,0,0,0,0,0,0,0,0,0,0,0,0,0,0,0,0,0,0,0,0,0,0,0,0,0,0,0,0,0,0,0,0,0,0,0,0,0,0,0,0,0,0,0,0,0,0,0,0,0,0,0,0,0,0,0,0,0,0,0,0,0,0,0,0,0,0,0,0,0,0,0,0,0,0,0,0,0,0,0,0,0,0,0,0,0,0,0,0,0,0,0,0],"sum_hessian":[1.0001237E4,4.0810803E3,5.9201567E3,9.052421E2,3.1758381E3,5.1114214E3,8.087354E2,4.5542996E2,4.4981216E2,2.0248812E3,1.1509568E3,4.9643374E3,1.4708394E2,4.36634E2,3.7210138E2,3.463579E2,1.09072044E2,2.19112E2,2.3070018E2,1.3011946E3,7.2368665E2,6.2933386E2,5.21623E2,8.4822516E2,4.1161123E3,9.0133865E1,5.695008E1,2.3875548E2,1.9787852E2,1.9408781E2,1.7801357E2,2.7972238E2,6.6635544E1,5.41172E1,5.4954845E1,1.3606447E2,8.304752E1,1.7087808E2,5.9822094E1,4.8228397E2,8.1891064E2,7.223651E2,1.3214996E0,4.856014E2,1.4373244E2,1.2442674E2,3.9719623E2,8.039554E2,4.4269764E1,1.0876036E2,4.007352E3,4.708093E1,4.3052937E1,3.6657024E1,2.0293056E1,1.6044551E2,7.8309975E1,1.0394543E2,9.3933105E1,1.7536452E2,1.87233E1,1.7663364E2,1.3799208E0,4.1845155E0,2.7553784E2,1.0067873E1,5.656767E1,3.4992535E1,1.9124666E1,5.108206E1,3.872784E0,1.1969179E2,1.6372686E1,7.6491905E1,6.5556183E0,1.2109939E2,4.97787E1,5.0023582E1,9.798512E0,2.019192E2,2.8036478E2,7.685973E0,8.112247E2,7.20423E2,1.9421676E0,3.5083368E2,1.3476773E2,1.4215054E2,1.5818983E0,1.04752426E2,1.9674318E1,3.6200464E2,3.5191593E1,5.9400165E2,2.0995372E2,6.97314E0,3.7296623E1,9.86149E1,1.0145462E1,1.7402005E2,3.833332E3,2.163907E1,2.5441858E1,1.1256329E1,3.1796606E1,4.9004703E0,3.1756556E1,1.6552324E1,3.7407327E0,1.473899E2,1.3055623E1,1.6287235E1,6.202274E1,9.729615E1,6.649272E0,7.668069E1,1.7252424E1,1.4722769E2,2.8136818E1,2.8768523E0,1.5846449E1,1.8340448E0,1.7479959E2],"tree_param":{"num_deleted":"0","num_feature":"21","num_nodes":"123","size_leaf_vector":"1"}},{"base_weights":[-7.670844E-2,1.070784E0,-9.815098E-1,4.8058766E-1,1.5077202E0,-1.1251906E0,-7.495757E-2,-2.0468725E-1,8.629573E-1,1.234522E0,1.8651122E0,-1.1550816E0,-1.5412027E-1,4.0854284E-1,-5.2050126E-1,-5.434532E-1,4.731789E-1,6.4813095E-1,1.8646208E0,1.3953485E0,7.584064E-1,1.6693912E0,2.0047417E0,-9.1673046E-1,-1.2016495E0,-3.3281535E-1,6.575253E-1,1.0547963E0,2.3032962E-1,-2.4959156E-1,-8.7042135E-1,-8.4328306E-1,-3.0859042E-2,3.9303195E-2,8.267675E-1,2.4298447E-1,9.5559895E-1,1.8887981E0,1.5332647E-1,9.891519E-1,1.5627699E0,5.578053E-1,1.5229095E0,1.2438235E0,1.7894818E0,2.1304412E-1,1.9063636E0,-3.4964216E-1,-9.9193376E-1,-9.604496E-1,-1.2128044E0,-5.5440974E-1,1.4800912E-1,1.8476635E-1,1.6504669E0,5.390692E-1,1.585411E0,1.1281452E-1,1.2411866E0,-3.295641E-1,9.6133363E-1,-8.9619863E-1,1.3350756E-1,-9.172007E-2,4.5716092E-2,-2.0015603E-2,9.107698E-2,7.246446E-2,-3.4256767E-2,3.4811087E-2,1.1634274E-1,-1.3751118E-3,7.3835164E-2,6.1065633E-2,1.2125881E-1,1.0726011E-1,1.9368215E-1,1.0784725E-1,-8.579139E-2,1.2380979E-1,5.596287E-2,2.0112586E-1,1.4681417E-1,1.4748958E-1,4.721968E-2,1.1552955E-1,1.8678088E-1,4.996661E-2,1.4105192E-1,8.649145E-2,1.865431E-1,1.3065255E-1,1.9489653E-1,-7.7202305E-2,9.522664E-3,-1.0131468E-1,2.8229044E-3,-1.0323947E-1,-1.8631225E-2,-1.2136056E-1,2.6555022E-2,-8.556893E-2,-1.0567367E-2,6.1891086E-2,-5.595379E-2,-2.4421373E-2,1.6297103E-1,2.2078222E-2,2.4152584E-1,-3.631878E-2,8.6108744E-2,1.820105E-1,6.76588E-2,-2.2666138E-2,3.4203097E-2,6.6703096E-2,1.807066E-1,-3.7830144E-2,9.3896165E-2,-1.0017889E-2,1.2958601E-1,5.6702E-2,-9.2561744E-2],"categories":[],"categories_nodes":[],"categories_segments":[],"categories_sizes":[],"default_left":[0,0,0,1,0,1,1,1,0,0,0,1,0,0,0,0,0,1,0,0,0,0,0,1,0,0,0,0,0,0,0,0,1,0,0,0,0,0,0,0,0,0,0,1,0,0,1,1,0,0,1,0,0,0,0,0,0,1,0,0,0,0,0,0,0,0,0,0,0,0,0,0,0,0,0,0,0,0,0,0,0,0,0,0,0,0,0,0,0,0,0,0,0,0,0,0,0,0,0,0,0,0,0,0,0,0,0,0,0,0,0,0,0,0,0,0,0,0,0,0,0,0,0],"id":3,"left_children":[1,3,5,7,9,11,13,15,17,19,21,23,25,27,29,31,33,35,37,39,41,43,45,47,49,51,53,55,57,59,61,63,65,67,69,71,73,75,77,79,81,83,85,87,89,-1,91,93,95,97,99,101,103,105,107,109,111,113,115,117,119,121,-1,-1,-1,-1,-1,-1,-1,-1,-1,-1,-1,-1,-1,-1,-1,-1,-1,-1,-1,-1,-1,-1,-1,-1,-1,-1,-1,-1,-1,-1,-1,-1,-1,-1,-1,-1,-1,-1,-1,-1,-1,-1,-1,-1,-1,-1,-1,-1,-1,-1,-1,-1,-1,-1,-1,-1,-1,-1,-1,-1,-1],"loss_changes":[1.0125368E4,1.1080396E3,7.101572E2,4.7981387E2,2.3887402E2,1.3643945E2,1.6114304E2,1.5098734E2,2.5165326E2,1.063645E2,2.5845215E1,4.9578613E1,2.0771547E1,4.1083332E1,3.6680145E1,6.730989E1,3.3604424E1,1.2048981E2,8.27417E0,6.968921E1,5.3811127E1,2.0809814E1,3.5864258E0,3.1659363E1,9.103516E0,1.2527005E1,1.1855576E1,2.0293991E1,3.3423504E1,2.1697601E1,1.0829666E1,2.6987915E1,2.6123987E1,2.6288801E1,1.90541E1,5.3358818E1,4.807126E1,5.9191284E0,4.6411247E0,3.2289246E1,2.8453735E1,2.1593903E1,7.16185E0,1.2007599E1,2.2911743E1,0E0,6.5620117E0,1.687524E1,1.4356445E1,9.47113E0,4.63916E0,1.0747391E1,1.2886386E1,1.1974153E1,8.465145E0,1.2139709E1,6.7834167E0,1.9859043E1,8.322613E0,1.3205437E1,5.0774975E0,7.760208E0,0E0,0E0,0E0,0E0,0E0,0E0,0E0,0E0,0E0,0E0,0E0,0E0,0E0,0E0,0E0,0E0,0E0,0E0,0E0,0E0,0E0,0E0,0E0,0E0,0E0,0E0,0E0,0E0,0E0,0E0,0E0,0E0,0E0,0E0,0E0,0E0,0E0,0E0,0E0,0E0,0E0,0E0,0E0,0E0,0E0,0E0,0E0,0E0,0E0,0E0,0E0,0E0,0E0,0E0,0E0,0E0,0E0,0E0,0E0,0E0,0E0],"parents":[2147483647,0,0,1,1,2,2,3,3,4,4,5,5,6,6,7,7,8,8,9,9,10,10,11,11,12,12,13,13,14,14,15,15,16,16,17,17,18,18,19,19,20,20,21,21,22,22,23,23,24,24,25,25,26,26,27,27,28,28,29,29,30,30,31,31,32,32,33,33,34,34,35,35,36,36,37,37,38,38,39,39,40,40,41,41,42,42,43,43,44,44,46,46,47,47,48,48,49,49,50,50,51,51,52,52,53,53,54,54,55,55,56,56,57,57,58,58,59,59,60,60,61,61],"right_children":[2,4,6,8,10,12,14,16,18,20,22,24,26,28,30,32,34,36,38,40,42,44,46,48,50,52,54,56,58,60,62,64,66,68,70,72,74,76,78,80,82,84,86,88,90,-1,92,94,96,98,100,102,104,106,108,110,112,114,116,118,120,122,-1,-1,-1,-1,-1,-1,-1,-1,-1,-1,-1,-1,-1,-1,-1,-1,-1,-1,-1,-1,-1,-1,-1,-1,-1,-1,-1,-1,-1,-1,-1,-1,-1,-1,-1,-1,-1,-1,-1,-1,-1,-1,-1,-1,-1,-1,-1,-1,-1,-1,-1,-1,-1,-1,-1,-1,-1,-1,-1,-1,-1],"split_conditions":[5.669311E-1,4.7590226E-1,1.4283852E-1,9.968654E-3,2.5981012E-1,6.851119E-2,6.5409356E-1,2.585591E-1,9.994442E-3,4.5700204E-1,9.814581E-3,6.849915E-1,3.595568E-1,2.3458863E-2,7.621746E-1,4.4363115E-2,1.3641791E-1,1.9301483E-1,6.3692224E-1,1.9173865E-1,7.0884144E-1,8.264994E-2,1.9798363E-2,2.1570918E-1,5.7870734E-1,1.9005029E-1,4.2603156E-1,5.2238566E-1,7.990339E-1,2.5981012E-1,9.994442E-3,3.9053957E0,1.19266756E-1,1.7884973E-1,4.319451E-3,3.7728414E-1,1.6469643E-1,1.2734184E-1,6.73778E-2,5.254862E-2,1.9798363E-2,1.51893785E-2,6.2260616E-1,1.3297352E-1,1.463582E-1,2.1304412E-1,1.4378089E-1,1.7766812E-1,5.036842E-1,3.1677685E0,1.0005306E0,2.8200097E-2,8.1858283E-1,8.531036E-3,4.53055E-3,2.4990495E-3,5.9478766E-1,1.6825438E-1,2.3151024E-1,3.050399E-1,2.4319366E-1,2.948256E-2,1.3350756E-1,-9.172007E-2,4.5716092E-2,-2.0015603E-2,9.107698E-2,7.246446E-2,-3.4256767E-2,3.4811087E-2,1.1634274E-1,-1.3751118E-3,7.3835164E-2,6.1065633E-2,1.2125881E-1,1.0726011E-1,1.9368215E-1,1.0784725E-1,-8.579139E-2,1.2380979E-1,5.596287E-2,2.0112586E-1,1.4681417E-1,1.4748958E-1,4.721968E-2,1.1552955E-1,1.8678088E-1,4.996661E-2,1.4105192E-1,8.649145E-2,1.865431E-1,1.3065255E-1,1.9489653E-1,-7.7202305E-2,9.522664E-3,-1.0131468E-1,2.8229044E-3,-1.0323947E-1,-1.8631225E-2,-1.2136056E-1,2.6555022E-2,-8.556893E-2,-1.0567367E-2,6.1891086E-2,-5.595379E-2,-2.4421373E-2,1.6297103E-1,2.2078222E-2,2.4152584E-1,-3.631878E-2,8.6108744E-2,1.820105E-1,6.76588E-2,-2.2666138E-2,3.4203097E-2,6.6703096E-2,1.807066E-1,-3.7830144E-2,9.3896165E-2,-1.0017889E-2,1.2958601E-1,5.6702E-2,-9.2561744E-2],"split_indices":[14,6,2,10,17,8,14,20,18,14,18,14,19,3,14,2,19,20,15,20,2,19,3,3,16,8,20,6,2,17,18,9,8,3,18,10,19,10,19,3,3,3,6,10,20,0,20,20,17,9,7,2,3,17,18,18,16,20,20,19,13,5,0,0,0,0,0,0,0,0,0,0,0,0,0,0,0,0,0,0,0,0,0,0,0,0,0,0,0,0,0,0,0,0,0,0,0,0,0,0,0,0,0,0,0,0,0,0,0,0,0,0,0,0,0,0,0,0,0,0,0,0,0],"split_type":[0,0,0,0,0,0,0,0,0,0,0,0,0,0,0,0,0,0,0,0,0,0,0,0,0,0,0,0,0,0,0,0,0,0,0,0,0,0,0,0,0,0,0,0,0,0,0,0,0,0,0,0,0,0,0,0,0,0,0,0,0,0,0,0,0,0,0,0,0,0,0,0,0,0,0,0,0,0,0,0,0,0,0,0,0,0,0,0,0,0,0,0,0,0,0,0,0,0,0,0,0,0,0,0,0,0,0,0,0,0,0,0,0,0,0,0,0,0,0,0,0,0,0],"sum_hessian":[9.750304E3,4.298567E3,5.4517373E3,1.8294785E3,2.4690884E3,4.705685E3,7.460521E2,6.553817E2,1.1740968E3,1.4019E3,1.0671884E3,4.5649785E3,1.4070662E2,3.5782565E2,3.8822644E2,4.3712518E2,2.1825655E2,9.681131E2,2.0598373E2,1.0464801E3,3.5541992E2,4.4973825E2,6.174501E2,7.494931E2,3.8154854E3,1.158013E2,2.4905321E1,7.628286E1,2.815428E2,2.1978285E2,1.684436E2,2.7539453E2,1.6173065E2,9.850087E1,1.1975568E2,4.1847903E2,5.4963403E2,2.0301184E2,2.971897E0,3.0745148E2,7.390287E2,2.829145E2,7.250544E1,1.0147971E2,3.4825854E2,2.6201407E2,3.55436E2,8.84165E1,6.610766E2,1.7250652E2,3.6429788E3,7.916432E1,3.6636982E1,1.7675669E1,7.229652E0,3.9706413E1,3.6576443E1,2.5321715E2,2.8325638E1,2.0684981E2,1.293304E1,1.6708441E2,1.3591875E0,2.608618E2,1.4532755E1,1.3775151E2,2.3979134E1,3.4924488E1,6.357638E1,5.02893E1,6.946638E1,2.7626862E2,1.4221043E2,2.3610257E2,3.1353146E2,1.2577724E1,1.9043411E2,1.5172954E0,1.4546015E0,1.9344864E2,1.1400282E2,1.25233215E2,6.137955E2,2.2769154E1,2.6014532E2,3.7202484E1,3.530296E1,1.9303427E1,8.2176285E1,2.7376719E1,3.2088184E2,2.5669825E1,3.2976617E2,4.497735E1,4.343915E1,6.4761707E2,1.3459512E1,1.5753252E2,1.4974009E1,3.6411843E3,1.7944348E0,4.682161E1,3.2342712E1,2.2072256E1,1.4564724E1,1.4270099E1,3.40557E0,2.9687042E0,4.260948E0,1.0410258E1,2.9296156E1,2.8272627E1,8.303817E0,1.02065895E2,1.5115126E2,1.5141468E1,1.318417E1,1.9987239E2,6.977411E0,3.2669513E0,9.666088E0,2.9329424E0,1.6415147E2],"tree_param":{"num_deleted":"0","num_feature":"21","num_nodes":"123","size_leaf_vector":"1"}},{"base_weights":[-7.588863E-2,9.711195E-1,-9.216105E-1,1.3183485E0,4.240484E-1,-1.0810192E0,-7.9269156E-2,9.950526E-1,1.6243514E0,-2.94611E-1,8.027946E-1,-1.118829E0,-3.1727645E-1,3.4659177E-1,-4.8100504E-1,1.1942668E0,4.0188423E-1,1.8106943E0,1.4589323E0,-5.838695E-1,2.5703347E-1,1.1927186E0,5.6445575E-1,-1.1676648E0,-8.53774E-1,-6.553472E-1,2.5042541E-2,1.6778877E-1,8.31586E-1,-5.557962E-1,7.756179E-1,8.733624E-1,1.376805E0,-4.4899708E-1,6.215372E-1,-8.772391E-3,1.8145236E0,1.0866555E0,1.6065289E0,-8.2725376E-1,-8.115865E-3,6.417782E-1,-6.969204E-2,1.109189E0,1.8487244E0,3.0875754E-1,9.114092E-1,-7.36109E-1,-1.1821781E0,-3.4258538E-1,-9.516082E-1,-1.2368855E-1,-8.9174896E-1,-1.2549607E-1,9.67972E-1,-2.2407933E-1,3.8323033E-1,9.472144E-1,-8.6803764E-2,-2.9398495E-1,-8.338602E-1,1.7524872E0,3.1788152E-1,1.302487E-1,6.638851E-2,1.4444534E-1,8.135908E-2,-7.8630246E-2,4.2588573E-2,3.0632297E-2,1.04787745E-1,8.3775304E-2,1.8184964E-1,-3.825174E-2,1.1877366E-1,1.4356796E-1,1.7795828E-1,-8.9398E-2,4.249382E-2,-4.4057358E-2,3.631349E-2,3.8737045E-3,8.916771E-2,-3.8637158E-2,5.812631E-2,8.952764E-2,1.3685124E-1,2.0648311E-1,1.189891E-1,1.8723333E-2,1.3633288E-1,2.1213388E-2,1.04865566E-1,1.9600613E-2,-8.988374E-2,-1.1208155E-1,-1.20526575E-1,-4.67362E-2,7.044705E-2,-1.0251869E-1,-5.855562E-2,-9.416043E-2,4.9319036E-2,-9.385421E-2,1.0091293E-1,-4.7893975E-2,1.9458544E-2,1.422809E-1,2.8447071E-2,8.894222E-2,-2.908237E-2,2.5882913E-2,1.247672E-1,6.379436E-2,1.260384E-1,9.305557E-2,-7.652356E-2,-3.5965864E-2,7.809425E-2,-8.619868E-2,6.8985604E-2,-2.6210392E-2,2.1506953E-1,1.3423719E-1,-3.7528742E-2],"categories":[],"categories_nodes":[],"categories_segments":[],"categories_sizes":[],"default_left":[0,0,0,0,0,1,1,0,0,0,0,1,0,0,0,1,1,0,0,1,0,0,0,1,1,0,0,1,0,0,0,0,0,1,0,0,0,0,0,1,1,0,0,0,0,1,1,0,1,0,1,1,0,0,0,0,0,0,0,0,0,0,0,0,0,0,0,0,0,0,0,0,0,0,0,0,0,0,0,0,0,0,0,0,0,0,0,0,0,0,0,0,0,0,0,0,0,0,0,0,0,0,0,0,0,0,0,0,0,0,0,0,0,0,0,0,0,0,0,0,0,0,0,0,0],"id":4,"left_children":[1,3,5,7,9,11,13,15,17,19,21,23,25,27,29,31,33,35,37,39,41,43,45,47,49,51,53,55,57,59,61,63,65,67,69,-1,71,73,75,77,79,81,83,85,87,89,91,93,95,97,99,101,103,105,107,109,111,113,115,117,119,121,123,-1,-1,-1,-1,-1,-1,-1,-1,-1,-1,-1,-1,-1,-1,-1,-1,-1,-1,-1,-1,-1,-1,-1,-1,-1,-1,-1,-1,-1,-1,-1,-1,-1,-1,-1,-1,-1,-1,-1,-1,-1,-1,-1,-1,-1,-1,-1,-1,-1,-1,-1,-1,-1,-1,-1,-1,-1,-1,-1,-1,-1,-1],"loss_changes":[8.409994E3,8.0559937E2,7.053804E2,2.5516748E2,4.4914E2,1.2721533E2,1.4338445E2,1.4896997E2,3.8413086E1,9.109237E1,9.9723755E1,5.34834E1,2.4294157E1,3.5149704E1,4.0955284E1,5.4226807E1,5.99885E1,4.682129E0,3.730542E1,5.2427902E1,2.4776306E1,2.0356995E1,5.9368652E1,2.1373535E1,3.2609344E1,1.3159916E1,1.505428E1,2.5293242E1,1.1695618E1,2.9424034E1,1.0460072E1,3.0222382E1,2.1739502E1,1.9850214E1,3.3859962E1,0E0,8.8635254E-1,3.0878159E1,1.243042E1,2.2354416E1,1.817201E1,1.3595726E1,2.2342781E1,1.9035522E1,3.9056702E0,4.9547016E1,2.7107697E1,1.8104584E1,3.5146484E0,1.4354737E1,1.42724E1,1.744696E1,7.433605E0,1.0456193E1,4.1334066E0,8.177521E0,2.043476E1,8.611816E0,9.785184E0,1.5208071E1,9.041397E0,6.6925793E0,1.3285571E1,0E0,0E0,0E0,0E0,0E0,0E0,0E0,0E0,0E0,0E0,0E0,0E0,0E0,0E0,0E0,0E0,0E0,0E0,0E0,0E0,0E0,0E0,0E0,0E0,0E0,0E0,0E0,0E0,0E0,0E0,0E0,0E0,0E0,0E0,0E0,0E0,0E0,0E0,0E0,0E0,0E0,0E0,0E0,0E0,0E0,0E0,0E0,0E0,0E0,0E0,0E0,0E0,0E0,0E0,0E0,0E0,0E0,0E0,0E0,0E0,0E0,0E0],"parents":[2147483647,0,0,1,1,2,2,3,3,4,4,5,5,6,6,7,7,8,8,9,9,10,10,11,11,12,12,13,13,14,14,15,15,16,16,17,17,18,18,19,19,20,20,21,21,22,22,23,23,24,24,25,25,26,26,27,27,28,28,29,29,30,30,31,31,32,32,33,33,34,34,36,36,37,37,38,38,39,39,40,40,41,41,42,42,43,43,44,44,45,45,46,46,47,47,48,48,49,49,50,50,51,51,52,52,53,53,54,54,55,55,56,56,57,57,58,58,59,59,60,60,61,61,62,62],"right_children":[2,4,6,8,10,12,14,16,18,20,22,24,26,28,30,32,34,36,38,40,42,44,46,48,50,52,54,56,58,60,62,64,66,68,70,-1,72,74,76,78,80,82,84,86,88,90,92,94,96,98,100,102,104,106,108,110,112,114,116,118,120,122,124,-1,-1,-1,-1,-1,-1,-1,-1,-1,-1,-1,-1,-1,-1,-1,-1,-1,-1,-1,-1,-1,-1,-1,-1,-1,-1,-1,-1,-1,-1,-1,-1,-1,-1,-1,-1,-1,-1,-1,-1,-1,-1,-1,-1,-1,-1,-1,-1,-1,-1,-1,-1,-1,-1,-1,-1,-1,-1,-1,-1,-1,-1],"split_conditions":[5.5598027E-1,4.0793827E-1,1.2962301E-1,9.960827E-3,7.208364E-2,3.7655108E-2,6.466959E-1,3.375379E-1,1.8556668E-1,2.0547488E-1,2.9748341E-2,2.499883E-2,1.5405433E-1,5.969054E-1,5.004294E-1,2.0931719E-1,2.0275232E-1,2.993743E-3,1.0466615E-1,1.3385887E-1,6.6195765E0,9.814581E-3,1.3251446E0,1.6833355E-1,6.095219E-1,4.407762E0,3.2508084E-1,1.6656432E-1,5.0511444E-1,7.471947E-1,2.5236469E-2,2.6333517E-1,3.5043278E0,2.9373077E-1,2.6647785E-1,-8.772391E-3,4.548528E-3,1.2665315E-1,2.7424276E-1,2.4698426E-1,1.7180218E-1,1.0927378E-1,4.3972282E0,1.2595313E0,1.7557323E-2,2.0549357E-1,1.4831868E-1,5.5760795E-1,7.823436E-1,2.5345457E-1,2.3151024E-1,1.9683506E-1,5.032023E-1,2.4127394E-1,6.3339204E-1,9.358743E-3,2.5981012E-1,5.7169287E-3,2.4613231E-2,9.186075E-1,9.904832E-3,1.8441597E-1,2.3441386E0,1.302487E-1,6.638851E-2,1.4444534E-1,8.135908E-2,-7.8630246E-2,4.2588573E-2,3.0632297E-2,1.04787745E-1,8.3775304E-2,1.8184964E-1,-3.825174E-2,1.1877366E-1,1.4356796E-1,1.7795828E-1,-8.9398E-2,4.249382E-2,-4.4057358E-2,3.631349E-2,3.8737045E-3,8.916771E-2,-3.8637158E-2,5.812631E-2,8.952764E-2,1.3685124E-1,2.0648311E-1,1.189891E-1,1.8723333E-2,1.3633288E-1,2.1213388E-2,1.04865566E-1,1.9600613E-2,-8.988374E-2,-1.1208155E-1,-1.20526575E-1,-4.67362E-2,7.044705E-2,-1.0251869E-1,-5.855562E-2,-9.416043E-2,4.9319036E-2,-9.385421E-2,1.0091293E-1,-4.7893975E-2,1.9458544E-2,1.422809E-1,2.8447071E-2,8.894222E-2,-2.908237E-2,2.5882913E-2,1.247672E-1,6.379436E-2,1.260384E-1,9.305557E-2,-7.652356E-2,-3.5965864E-2,7.809425E-2,-8.619868E-2,6.8985604E-2,-2.6210392E-2,2.1506953E-1,1.3423719E-1,-3.7528742E-2],"split_indices":[14,14,2,17,2,8,14,0,14,19,3,11,19,5,17,20,13,5,2,10,4,18,9,3,14,1,8,20,11,14,3,14,12,20,19,0,11,20,20,8,20,8,9,9,3,8,20,16,14,17,20,20,17,20,14,3,17,18,3,2,18,13,12,0,0,0,0,0,0,0,0,0,0,0,0,0,0,0,0,0,0,0,0,0,0,0,0,0,0,0,0,0,0,0,0,0,0,0,0,0,0,0,0,0,0,0,0,0,0,0,0,0,0,0,0,0,0,0,0,0,0,0,0,0,0],"split_type":[0,0,0,0,0,0,0,0,0,0,0,0,0,0,0,0,0,0,0,0,0,0,0,0,0,0,0,0,0,0,0,0,0,0,0,0,0,0,0,0,0,0,0,0,0,0,0,0,0,0,0,0,0,0,0,0,0,0,0,0,0,0,0,0,0,0,0,0,0,0,0,0,0,0,0,0,0,0,0,0,0,0,0,0,0,0,0,0,0,0,0,0,0,0,0,0,0,0,0,0,0,0,0,0,0,0,0,0,0,0,0,0,0,0,0,0,0,0,0,0,0,0,0,0,0],"sum_hessian":[9.495682E3,4.2428555E3,5.252826E3,2.594624E3,1.6482317E3,4.4167046E3,8.361213E2,1.2637297E3,1.3308943E3,5.689287E2,1.079303E3,4.207922E3,2.087827E2,4.059405E2,4.3018076E2,9.4525476E2,3.1847495E2,6.211874E2,7.09707E2,3.7318713E2,1.957416E2,4.0792706E2,6.713759E2,3.5503694E3,6.575527E2,1.0458308E2,1.0419963E2,2.975782E2,1.083623E2,4.0654205E2,2.3638687E1,3.4482785E2,6.004269E2,6.5130684E1,2.5334425E2,1.2063404E0,6.19981E2,2.0386624E2,5.058407E2,2.6199783E2,1.1118931E2,8.944678E1,1.06294815E2,3.6423907E2,4.3687973E1,3.8760687E2,2.8376904E2,1.1719765E2,3.4331716E3,1.0635324E2,5.5119946E2,3.2658516E1,7.192456E1,9.0601944E1,1.3597685E1,1.0555089E2,1.920273E2,9.621687E1,1.2145424E1,2.1045004E2,1.9609203E2,6.6398296E0,1.6998857E1,1.114006E2,2.3342726E2,5.3464514E2,6.578176E1,4.7080395E1,1.805029E1,1.4664264E2,1.0670161E2,3.3697338E0,6.1661127E2,1.2944151E1,1.9092209E2,2.5921948E2,2.4662123E2,2.4901453E2,1.2983303E1,5.1274555E1,5.9914757E1,2.6544987E1,6.2901787E1,7.178096E1,3.451386E1,2.0203516E2,1.6220393E2,3.1290255E1,1.2397718E1,3.4861188E2,3.899498E1,4.697506E1,2.3679398E2,1.7388874E1,9.980877E1,9.5213226E2,2.4810396E3,9.552345E1,1.0829793E1,4.5744882E2,9.375064E1,1.3814956E1,1.884356E1,7.069066E1,1.2339033E0,4.282119E1,4.7780754E1,7.5151005E0,6.0825844E0,5.2719946E0,1.0027889E2,1.6900528E2,2.3022022E1,4.993781E1,4.6279068E1,4.7103195E0,7.435105E0,1.9895981E2,1.1490221E1,1.9296436E2,3.1276774E0,1.152246E0,5.4875836E0,6.482006E0,1.0516852E1],"tree_param":{"num_deleted":"0","num_feature":"21","num_nodes":"125","size_leaf_vector":"1"}},{"base_weights":[-7.083073E-2,8.536358E-1,-9.0318984E-1,1.263079E0,4.415689E-1,-1.0564498E0,-1.008244E-1,1.0630568E0,1.5971389E0,-1.7827292E-1,7.567387E-1,-1.0858014E0,-1.4589137E-1,2.51696E-1,-5.217215E-1,4.4663605E-1,1.2135962E0,1.064306E0,1.624178E0,-4.2747155E-1,5.605204E-1,6.187103E-1,1.2613583E0,-8.2311857E-1,-1.1373538E0,-2.571488E-1,6.4826685E-1,8.7259823E-1,8.827187E-2,-3.38854E-1,-9.6393013E-1,1.0212932E0,5.4644737E-2,7.886513E-1,1.3144369E0,2.4089812E-1,1.4679843E0,1.7262604E0,1.5133533E0,-5.9238356E-1,2.2023371E-1,7.192375E-1,-3.4614938E-1,3.6071855E-1,8.743778E-1,5.997734E-1,1.4102756E0,-3.4985244E-1,-9.078384E-1,-1.1595119E0,-9.6375793E-1,-6.028431E-1,-4.8908636E-2,-2.2922023E-1,1.2559776E0,7.371195E-1,2.2185817E-1,4.481924E-3,1.1186109E0,-4.218911E-1,6.639761E-1,-1.0487665E0,-2.3921373E-1,5.865378E-2,1.275567E-1,1.8779539E-1,-4.98621E-3,4.0836025E-2,1.18370906E-1,1.1344824E-1,1.4376281E-1,-5.4925915E-2,1.1930311E-1,5.174875E-2,1.6461937E-1,1.7303465E-1,2.1292238E-2,1.5839048E-1,1.1742604E-1,-7.9571016E-2,-1.7393855E-2,-4.7577643E-3,9.731084E-2,6.136045E-2,1.8321043E-1,-6.12998E-2,1.08426586E-1,2.7843732E-2,1.2545973E-1,7.559698E-2,1.4108457E-1,2.6748706E-2,1.302534E-1,1.8022273E-1,1.3145655E-1,-9.524547E-2,6.6599534E-3,5.6472342E-2,-9.228783E-2,-8.1609406E-2,-1.168411E-1,-8.081468E-2,-1.0948961E-1,7.560368E-2,-6.865119E-2,2.3560887E-2,-5.432188E-2,-7.425999E-2,8.874631E-2,1.7820749E-1,1.1463325E-2,1.1858133E-2,1.0344589E-1,-2.7173698E-2,2.9126514E-2,1.3009098E-1,-1.3693142E-2,-5.873407E-2,-8.6033195E-3,1.2803641E-1,-7.741805E-3,-1.0951485E-1,-1.701937E-2,-8.1334025E-2,5.772698E-2],"categories":[],"categories_nodes":[],"categories_segments":[],"categories_sizes":[],"default_left":[0,0,0,0,0,1,1,1,0,0,0,1,1,0,0,0,0,0,0,1,0,0,0,0,1,0,0,0,1,0,0,0,0,0,0,1,0,0,0,1,0,0,0,1,0,0,0,0,0,0,0,0,0,0,1,1,0,1,0,0,1,0,1,0,0,0,0,0,0,0,0,0,0,0,0,0,0,0,0,0,0,0,0,0,0,0,0,0,0,0,0,0,0,0,0,0,0,0,0,0,0,0,0,0,0,0,0,0,0,0,0,0,0,0,0,0,0,0,0,0,0,0,0,0,0],"id":5,"left_children":[1,3,5,7,9,11,13,15,17,19,21,23,25,27,29,31,33,35,37,39,41,43,45,47,49,51,53,55,57,59,61,63,65,67,69,71,73,75,77,79,81,83,85,87,89,91,93,95,97,99,101,103,105,107,109,111,-1,113,115,117,119,121,123,-1,-1,-1,-1,-1,-1,-1,-1,-1,-1,-1,-1,-1,-1,-1,-1,-1,-1,-1,-1,-1,-1,-1,-1,-1,-1,-1,-1,-1,-1,-1,-1,-1,-1,-1,-1,-1,-1,-1,-1,-1,-1,-1,-1,-1,-1,-1,-1,-1,-1,-1,-1,-1,-1,-1,-1,-1,-1,-1,-1,-1,-1],"loss_changes":[7.1070483E3,7.3774536E2,5.9754297E2,1.4493262E2,4.2650394E2,1.0890039E2,1.1594573E2,1.2710498E2,1.0083496E1,1.3583151E2,1.0000879E2,5.2595215E1,1.1527826E1,4.309405E1,2.8469444E1,6.1120556E1,4.631421E1,1.3771732E1,6.1936035E0,5.901641E1,2.7043163E1,7.4760895E1,2.9679413E1,2.582965E1,1.1583008E1,8.141031E0,8.865009E0,1.4509415E1,2.9168196E1,2.138651E1,6.1208572E0,1.1420128E1,3.1059023E1,3.17314E1,1.8133911E1,1.2073015E1,3.9451332E0,2.0930176E0,7.262329E0,3.7270386E1,2.2751245E1,1.7541405E1,1.1510273E1,4.144378E1,3.5203094E1,1.3351433E1,7.0905457E0,2.5319782E1,1.2757233E1,7.9799805E0,6.8629456E0,5.360119E0,1.0242781E1,4.9168158E0,5.594528E0,1.4946884E1,0E0,2.4913738E1,5.9940186E0,1.299073E1,9.134216E0,3.582138E0,6.167753E0,0E0,0E0,0E0,0E0,0E0,0E0,0E0,0E0,0E0,0E0,0E0,0E0,0E0,0E0,0E0,0E0,0E0,0E0,0E0,0E0,0E0,0E0,0E0,0E0,0E0,0E0,0E0,0E0,0E0,0E0,0E0,0E0,0E0,0E0,0E0,0E0,0E0,0E0,0E0,0E0,0E0,0E0,0E0,0E0,0E0,0E0,0E0,0E0,0E0,0E0,0E0,0E0,0E0,0E0,0E0,0E0,0E0,0E0,0E0,0E0,0E0,0E0],"parents":[2147483647,0,0,1,1,2,2,3,3,4,4,5,5,6,6,7,7,8,8,9,9,10,10,11,11,12,12,13,13,14,14,15,15,16,16,17,17,18,18,19,19,20,20,21,21,22,22,23,23,24,24,25,25,26,26,27,27,28,28,29,29,30,30,31,31,32,32,33,33,34,34,35,35,36,36,37,37,38,38,39,39,40,40,41,41,42,42,43,43,44,44,45,45,46,46,47,47,48,48,49,49,50,50,51,51,52,52,53,53,54,54,55,55,57,57,58,58,59,59,60,60,61,61,62,62],"right_children":[2,4,6,8,10,12,14,16,18,20,22,24,26,28,30,32,34,36,38,40,42,44,46,48,50,52,54,56,58,60,62,64,66,68,70,72,74,76,78,80,82,84,86,88,90,92,94,96,98,100,102,104,106,108,110,112,-1,114,116,118,120,122,124,-1,-1,-1,-1,-1,-1,-1,-1,-1,-1,-1,-1,-1,-1,-1,-1,-1,-1,-1,-1,-1,-1,-1,-1,-1,-1,-1,-1,-1,-1,-1,-1,-1,-1,-1,-1,-1,-1,-1,-1,-1,-1,-1,-1,-1,-1,-1,-1,-1,-1,-1,-1,-1,-1,-1,-1,-1,-1,-1,-1,-1,-1],"split_conditions":[5.669311E-1,3.6847657E-1,1.2962301E-1,9.994442E-3,7.208364E-2,7.4902326E-2,6.6709995E-1,1.2760639E-1,2.5664192E-2,2.8898737E-1,2.5981012E-1,6.8128103E-1,4.4045505E-1,2.3458863E-2,8.233017E-1,5.8566127E-2,6.2416546E-2,9.80755E-1,2.9748341E-2,7.818649E-2,1.000153E0,1.0389125E0,1.5719E-1,3.120328E-1,2.499883E-2,1.1742406E-1,1.3981405E-1,9.994442E-3,9.752222E-2,5.004294E-1,5.459027E-1,2.3151024E-1,-8.596303E-2,2.7559868E-1,1.456631E0,2.514268E-1,2.9719523E-3,5.260081E-1,2.4110639E-1,1.2977432E-1,2.586956E-1,5.046122E-1,9.91512E-3,2.1668744E-1,6.386872E-1,5.0993776E-1,1.0347568E-2,1.5480281E-1,4.6464413E-1,1.5926999E-1,7.795231E-1,4.8838824E-1,8.996834E-1,1.0010513E0,8.143989E-3,1.6825438E-1,2.2185817E-1,1.2903365E-1,7.6752424E0,2.1566011E-1,9.079266E-3,2.380496E0,1.8676546E-1,5.865378E-2,1.275567E-1,1.8779539E-1,-4.98621E-3,4.0836025E-2,1.18370906E-1,1.1344824E-1,1.4376281E-1,-5.4925915E-2,1.1930311E-1,5.174875E-2,1.6461937E-1,1.7303465E-1,2.1292238E-2,1.5839048E-1,1.1742604E-1,-7.9571016E-2,-1.7393855E-2,-4.7577643E-3,9.731084E-2,6.136045E-2,1.8321043E-1,-6.12998E-2,1.08426586E-1,2.7843732E-2,1.2545973E-1,7.559698E-2,1.4108457E-1,2.6748706E-2,1.302534E-1,1.8022273E-1,1.3145655E-1,-9.524547E-2,6.6599534E-3,5.6472342E-2,-9.228783E-2,-8.1609406E-2,-1.168411E-1,-8.081468E-2,-1.0948961E-1,7.560368E-2,-6.865119E-2,2.3560887E-2,-5.432188E-2,-7.425999E-2,8.874631E-2,1.7820749E-1,1.1463325E-2,1.1858133E-2,1.0344589E-1,-2.7173698E-2,2.9126514E-2,1.3009098E-1,-1.3693142E-2,-5.873407E-2,-8.6033195E-3,1.2803641E-1,-7.741805E-3,-1.0951485E-1,-1.701937E-2,-8.1334025E-2,5.772698E-2],"split_indices":[14,14,2,18,2,8,14,10,2,19,17,14,20,3,14,3,2,9,3,8,0,9,20,0,11,9,8,18,8,17,2,20,16,19,9,10,6,0,14,11,10,17,17,8,2,17,3,20,15,3,14,15,3,3,10,20,0,10,4,20,10,9,20,0,0,0,0,0,0,0,0,0,0,0,0,0,0,0,0,0,0,0,0,0,0,0,0,0,0,0,0,0,0,0,0,0,0,0,0,0,0,0,0,0,0,0,0,0,0,0,0,0,0,0,0,0,0,0,0,0,0,0,0,0,0],"split_type":[0,0,0,0,0,0,0,0,0,0,0,0,0,0,0,0,0,0,0,0,0,0,0,0,0,0,0,0,0,0,0,0,0,0,0,0,0,0,0,0,0,0,0,0,0,0,0,0,0,0,0,0,0,0,0,0,0,0,0,0,0,0,0,0,0,0,0,0,0,0,0,0,0,0,0,0,0,0,0,0,0,0,0,0,0,0,0,0,0,0,0,0,0,0,0,0,0,0,0,0,0,0,0,0,0,0,0,0,0,0,0,0,0,0,0,0,0,0,0,0,0,0,0,0,0],"sum_hessian":[9.23407E3,4.37496E3,4.859111E3,2.1934302E3,2.1815295E3,4.0795576E3,7.795531E2,1.3745715E3,8.188586E2,7.3548724E2,1.4460424E3,3.951974E3,1.2758351E2,4.244549E2,3.550982E2,2.705804E2,1.1039911E3,4.149613E1,7.773624E2,5.5029236E2,1.8519492E2,1.1372083E3,3.0883414E2,6.5113104E2,3.300843E3,1.1249916E2,1.5084347E1,8.7536255E1,3.3691864E2,2.5246297E2,1.0263526E2,1.0907364E2,1.6150677E2,2.1342657E2,8.905645E2,1.41764E1,2.7319733E1,3.9705334E2,3.8030908E2,4.3868445E2,1.1160789E2,1.5778123E2,2.7413671E1,5.672313E2,5.699769E2,5.7667244E1,2.511669E2,9.9641E1,5.5149E2,2.9221702E3,3.78673E2,4.1579357E1,7.091981E1,6.4270296E0,8.657317E0,8.093723E1,6.599022E0,3.125089E2,2.4409721E1,2.3369193E2,1.8771032E1,9.147941E1,1.1155852E1,4.1471943E1,6.76017E1,7.835351E0,1.5367142E2,1.0978186E2,1.0364471E2,3.660531E2,5.245114E2,7.9784017E0,6.197998E0,4.9298315E0,2.23899E1,3.9584116E2,1.2121867E0,3.117712E2,6.853787E1,2.9462274E2,1.440617E2,8.30148E1,2.8593082E1,1.4551991E2,1.2261334E1,2.3585226E1,3.828446E0,5.2061993E2,4.6611393E1,4.68893E2,1.0108391E2,4.009143E1,1.7575815E1,4.579537E1,2.0537154E2,4.019383E1,5.944717E1,5.2061353E0,5.462839E2,7.6151726E1,2.8460183E3,1.7645296E2,2.0222005E2,1.9455315E0,3.9633827E1,4.53439E1,2.5575907E1,4.6323614E0,1.7946684E0,5.5415735E0,3.1157434E0,2.6730373E1,5.4206856E1,1.5921318E2,1.5329575E2,2.1283342E1,3.126378E0,1.5606349E2,7.762843E1,9.852658E0,8.918375E0,8.665802E1,4.8213882E0,6.552314E0,4.6035385E0],"tree_param":{"num_deleted":"0","num_feature":"21","num_nodes":"125","size_leaf_vector":"1"}},{"base_weights":[-6.765251E-2,7.266234E-1,-9.228928E-1,1.0499471E0,2.3907949E-1,-1.0350575E0,-1.572671E-1,8.042925E-1,1.3555542E0,-3.3258262E-1,5.5232155E-1,-1.0671433E0,-3.410887E-1,2.9661635E-2,-7.6458436E-1,9.684692E-1,3.0935696E-1,1.4875935E0,1.1546252E0,-6.0426646E-1,1.4587766E-1,4.262615E-1,1.0778481E0,-1.0831702E0,-1.1405808E-1,-4.3404135E-1,7.0030326E-1,-6.839557E-2,9.824068E-1,4.7688827E-1,-8.11128E-1,1.0581901E0,5.708051E-1,-1.7802542E-1,6.1942023E-1,1.5350993E0,1.2062324E0,7.902091E-1,1.3231468E0,-8.1593657E-1,-8.639542E-2,-1.6805176E-1,6.849237E-1,2.96888E-1,8.40718E-1,5.9055763E-1,1.2565607E0,-9.232261E-1,-1.1258223E0,-5.469448E-1,5.574642E-1,-8.575174E-1,-2.6969367E-1,-5.7851918E-2,1.3103133E0,-2.727441E-1,3.0300665E-1,5.4531616E-1,1.4889603E0,1.3756016E0,-8.00192E-2,-8.365022E-1,7.423147E-2,1.2895268E-1,9.369861E-2,8.947968E-2,2.9625995E-2,2.4742054E-2,-6.230395E-2,3.5326555E-2,1.0331609E-1,1.6235459E-1,1.4474428E-1,-7.756575E-2,1.2344481E-1,1.13112405E-1,1.134227E-2,1.6126443E-1,1.2247729E-1,-9.179104E-2,-3.9206333E-2,-4.0290583E-2,2.8265877E-2,8.248516E-3,-7.5104475E-2,8.214127E-2,-5.4481443E-2,-2.0728968E-3,5.0141808E-2,7.560276E-2,1.4582065E-1,4.0441914E-3,9.565108E-2,1.04904175E-1,1.5570873E-1,-1.0094831E-1,-6.1033398E-2,-8.323019E-2,-1.1356997E-1,1.4855699E-1,-6.6071115E-2,-8.690145E-2,9.814242E-2,-9.9336326E-2,2.1090716E-2,-4.9484584E-2,5.1037236E-3,-6.370375E-2,1.0004262E-1,1.5970229E-1,-2.8481811E-2,-3.7882794E-2,2.6516045E-2,1.9748235E-2,1.6564183E-1,1.5718995E-1,2.3942603E-2,-1.5409633E-2,1.6559637E-1,1.9396661E-1,2.0060733E-2,-9.427165E-2,-4.380439E-2],"categories":[],"categories_nodes":[],"categories_segments":[],"categories_sizes":[],"default_left":[0,0,0,0,0,1,1,0,0,0,0,0,0,1,0,0,1,0,1,1,1,1,0,1,1,0,1,0,0,0,0,0,0,0,0,0,0,0,0,1,0,0,0,1,1,0,0,1,0,1,0,0,0,0,1,0,0,0,0,0,0,1,0,0,0,0,0,0,0,0,0,0,0,0,0,0,0,0,0,0,0,0,0,0,0,0,0,0,0,0,0,0,0,0,0,0,0,0,0,0,0,0,0,0,0,0,0,0,0,0,0,0,0,0,0,0,0,0,0,0,0,0,0],"id":6,"left_children":[1,3,5,7,9,11,13,15,17,19,21,23,25,27,29,31,33,35,37,39,41,43,45,47,49,51,53,55,57,59,61,63,65,67,69,71,73,75,77,79,81,83,85,87,89,91,93,95,97,99,101,103,105,107,109,111,113,115,117,119,-1,121,-1,-1,-1,-1,-1,-1,-1,-1,-1,-1,-1,-1,-1,-1,-1,-1,-1,-1,-1,-1,-1,-1,-1,-1,-1,-1,-1,-1,-1,-1,-1,-1,-1,-1,-1,-1,-1,-1,-1,-1,-1,-1,-1,-1,-1,-1,-1,-1,-1,-1,-1,-1,-1,-1,-1,-1,-1,-1,-1,-1,-1],"loss_changes":[6.0680303E3,7.2983813E2,3.692163E2,2.0794995E2,3.3111343E2,8.316919E1,6.255254E1,1.2533203E2,3.116333E1,8.520665E1,7.865723E1,5.4640625E1,1.6494333E1,3.9504223E1,7.879547E0,4.080188E1,5.8530735E1,8.098511E0,2.9411133E1,4.5733047E1,4.038346E1,5.1485855E1,1.9321716E1,2.3013184E1,1.786535E1,1.0498379E1,6.591357E0,2.9201822E1,7.9241943E0,7.2015266E0,5.562111E0,2.5308472E1,1.8931E1,2.8759727E1,2.5677711E1,2.5594482E0,7.231827E0,3.662761E1,7.640381E0,1.245578E1,1.4405907E1,2.2144197E1,1.5180393E1,4.787918E1,1.0872528E1,1.2787113E1,8.824158E0,1.9567505E1,7.1115723E0,9.5915985E0,1.5472128E1,6.3989563E0,8.150915E0,5.0744333E0,4.0445786E0,1.4253502E1,1.9188885E1,6.770338E0,5.111534E0,1.9224482E0,0E0,4.82695E0,0E0,0E0,0E0,0E0,0E0,0E0,0E0,0E0,0E0,0E0,0E0,0E0,0E0,0E0,0E0,0E0,0E0,0E0,0E0,0E0,0E0,0E0,0E0,0E0,0E0,0E0,0E0,0E0,0E0,0E0,0E0,0E0,0E0,0E0,0E0,0E0,0E0,0E0,0E0,0E0,0E0,0E0,0E0,0E0,0E0,0E0,0E0,0E0,0E0,0E0,0E0,0E0,0E0,0E0,0E0,0E0,0E0,0E0,0E0,0E0,0E0],"parents":[2147483647,0,0,1,1,2,2,3,3,4,4,5,5,6,6,7,7,8,8,9,9,10,10,11,11,12,12,13,13,14,14,15,15,16,16,17,17,18,18,19,19,20,20,21,21,22,22,23,23,24,24,25,25,26,26,27,27,28,28,29,29,30,30,31,31,32,32,33,33,34,34,35,35,36,36,37,37,38,38,39,39,40,40,41,41,42,42,43,43,44,44,45,45,46,46,47,47,48,48,49,49,50,50,51,51,52,52,53,53,54,54,55,55,56,56,57,57,58,58,59,59,61,61],"right_children":[2,4,6,8,10,12,14,16,18,20,22,24,26,28,30,32,34,36,38,40,42,44,46,48,50,52,54,56,58,60,62,64,66,68,70,72,74,76,78,80,82,84,86,88,90,92,94,96,98,100,102,104,106,108,110,112,114,116,118,120,-1,122,-1,-1,-1,-1,-1,-1,-1,-1,-1,-1,-1,-1,-1,-1,-1,-1,-1,-1,-1,-1,-1,-1,-1,-1,-1,-1,-1,-1,-1,-1,-1,-1,-1,-1,-1,-1,-1,-1,-1,-1,-1,-1,-1,-1,-1,-1,-1,-1,-1,-1,-1,-1,-1,-1,-1,-1,-1,-1,-1,-1,-1],"split_conditions":[5.925306E-1,4.250826E-1,1.663251E-1,2.5981012E-1,7.208364E-2,3.7655108E-2,7.591436E-1,3.375379E-1,2.4110639E-1,1.8983898E-1,6.3866836E-1,2.5023234E-1,3.4273678E-1,4.9588576E-2,1.008057E0,2.542341E0,9.527141E-3,2.4423386E-1,1.9173865E-1,1.324249E-1,2.585591E-1,3.491217E-1,1.6439773E-1,7.1663433E-1,1.6952339E-1,1.6825438E-1,3.0468225E-3,5.308457E-1,3.993856E-1,1.7866492E0,9.952536E-3,2.9748341E-2,3.468694E-2,8.489978E0,3.050399E-1,2.8608259E-2,1.9833392E-2,9.736635E-2,1.9798363E-2,2.7424276E-1,2.1327905E-2,6.907609E-1,1.1719595E1,1.3015218E-1,9.2698795E-1,5.897993E-1,6.2260616E-1,2.0931719E-1,1.5926999E-1,5.184025E-1,5.116249E-3,2.7056384E0,2.7182411E-2,1.9020031E-1,6.591182E-1,1.8752081E0,9.685859E-3,8.2229865E-1,5.5266544E-2,7.969441E-1,-8.00192E-2,2.2972451E-1,7.423147E-2,1.2895268E-1,9.369861E-2,8.947968E-2,2.9625995E-2,2.4742054E-2,-6.230395E-2,3.5326555E-2,1.0331609E-1,1.6235459E-1,1.4474428E-1,-7.756575E-2,1.2344481E-1,1.13112405E-1,1.134227E-2,1.6126443E-1,1.2247729E-1,-9.179104E-2,-3.9206333E-2,-4.0290583E-2,2.8265877E-2,8.248516E-3,-7.5104475E-2,8.214127E-2,-5.4481443E-2,-2.0728968E-3,5.0141808E-2,7.560276E-2,1.4582065E-1,4.0441914E-3,9.565108E-2,1.04904175E-1,1.5570873E-1,-1.0094831E-1,-6.1033398E-2,-8.323019E-2,-1.1356997E-1,1.4855699E-1,-6.6071115E-2,-8.690145E-2,9.814242E-2,-9.9336326E-2,2.1090716E-2,-4.9484584E-2,5.1037236E-3,-6.370375E-2,1.0004262E-1,1.5970229E-1,-2.8481811E-2,-3.7882794E-2,2.6516045E-2,1.9748235E-2,1.6564183E-1,1.5718995E-1,2.3942603E-2,-1.5409633E-2,1.6559637E-1,1.9396661E-1,2.0060733E-2,-9.427165E-2,-4.380439E-2],"split_indices":[14,14,2,17,2,8,14,0,14,19,5,17,8,8,7,12,10,0,20,10,20,20,20,15,20,20,10,2,6,12,18,3,3,4,19,3,8,3,3,20,5,0,4,10,13,6,6,20,3,15,11,9,2,6,15,9,18,4,8,14,0,20,0,0,0,0,0,0,0,0,0,0,0,0,0,0,0,0,0,0,0,0,0,0,0,0,0,0,0,0,0,0,0,0,0,0,0,0,0,0,0,0,0,0,0,0,0,0,0,0,0,0,0,0,0,0,0,0,0,0,0,0,0],"split_type":[0,0,0,0,0,0,0,0,0,0,0,0,0,0,0,0,0,0,0,0,0,0,0,0,0,0,0,0,0,0,0,0,0,0,0,0,0,0,0,0,0,0,0,0,0,0,0,0,0,0,0,0,0,0,0,0,0,0,0,0,0,0,0,0,0,0,0,0,0,0,0,0,0,0,0,0,0,0,0,0,0,0,0,0,0,0,0,0,0,0,0,0,0,0,0,0,0,0,0,0,0,0,0,0,0,0,0,0,0,0,0,0,0,0,0,0,0,0,0,0,0,0,0],"sum_hessian":[8.930825E3,4.6305273E3,4.3002974E3,2.7834663E3,1.8470609E3,3.750495E3,5.4980237E2,1.5451044E3,1.238362E3,6.538085E2,1.1932524E3,3.5842393E3,1.662557E2,4.2113162E2,1.2867072E2,1.1595195E3,3.855848E2,7.4342267E2,4.949394E2,4.1684735E2,2.3696115E2,9.638591E2,2.2939343E2,3.5248303E3,5.9408897E1,1.531675E2,1.3088223E1,3.826747E2,3.8456936E1,4.3155227E0,1.24355194E2,9.447127E2,2.1480685E2,1.5008888E2,2.3549594E2,6.3222095E2,1.1120171E2,1.5830501E2,3.3663437E2,2.9549408E2,1.2135326E2,1.5018481E2,8.677634E1,7.358714E2,2.2798763E2,6.270956E1,1.6668387E2,7.468434E2,2.777987E3,3.623565E1,2.317325E1,4.164438E1,1.1152311E2,6.2390904E0,6.8491335E0,2.4702512E2,1.3564958E2,2.1758589E1,1.6698349E1,2.487712E0,1.827811E0,1.228107E2,1.5444916E0,3.214794E2,6.232333E2,9.7494316E1,1.1731254E2,7.695845E1,7.3130424E1,1.4443585E2,9.1060104E1,3.0597064E2,3.2625027E2,1.1890795E0,1.10012634E2,1.04828735E2,5.3476273E1,8.147483E1,2.5515955E2,2.372515E2,5.8242596E1,6.5277695E1,5.6075565E1,1.0564372E2,4.4541092E1,7.840607E1,8.370267E0,2.8859998E2,4.4727145E2,2.0244592E2,2.55417E1,2.549498E1,3.721458E1,1.01255684E2,6.5428185E1,5.837037E2,1.6313972E2,9.321447E1,2.6847725E3,1.2815628E0,3.4954086E1,5.0687866E0,1.8104464E1,3.700908E1,4.6353E0,6.5205894E1,4.631722E1,4.2895203E0,1.9495703E0,5.8046227E0,1.0445107E0,2.0657983E2,4.044529E1,1.2690112E2,8.748455E0,4.0449047E0,1.7713684E1,1.5477878E0,1.5150561E1,1.241117E0,1.2465949E0,9.588531E1,2.6925396E1],"tree_param":{"num_deleted":"0","num_feature":"21","num_nodes":"123","size_leaf_vector":"1"}},{"base_weights":[-7.066871E-2,6.5551084E-1,-8.972138E-1,2.8114024E-1,9.9786943E-1,-1.0331154E0,-2.935215E-1,-2.3810919E-1,5.518107E-1,8.466512E-1,1.4312884E0,-1.0612341E0,-3.9267126E-1,-7.275349E-2,-7.5136095E-1,-4.9648625E-1,2.7364945E-1,8.527255E-1,2.313167E-1,6.146363E-1,1.037199E0,1.4360473E0,-5.40761E-2,-1.0719281E0,-2.5764543E-1,-7.630913E-1,-1.097768E-1,-1.12640664E-1,1.742161E0,-4.9831548E-1,-9.544361E-1,-8.1479067E-1,-9.214958E-2,-1.0350324E-1,5.8559155E-1,6.2353677E-1,1.1696216E0,9.7009644E-4,5.6332374E-1,1.8948987E-1,7.767785E-1,8.350888E-1,1.23881E0,1.5465773E0,1.3400904E0,-9.550662E-1,-1.1265472E0,1.2590641E0,-4.200938E-1,-3.2739636E-1,-1.0161296E0,-2.2835146E-1,1.1604395E0,-3.209902E-1,1.6351865E-1,-2.6168654E-2,2.0042608E0,-5.7622164E-1,6.3129336E-1,-1.0028021E0,-1.5872404E-1,-9.5431425E-2,-3.502327E-2,-2.1300847E-2,1.03166774E-1,-2.7096504E-2,7.7141985E-2,4.010754E-2,1.2904538E-1,1.0725438E-1,5.3572007E-2,1.030246E-1,1.4328937E-1,1.9095877E-2,-5.151374E-2,3.340892E-2,8.762142E-2,6.0467785E-3,9.4487354E-2,1.193647E-1,6.709611E-2,7.492449E-2,1.3260871E-1,3.58681E-2,1.2549736E-1,3.4380447E-2,1.55161E-1,8.011855E-2,1.3789241E-1,-1.018213E-1,-6.3861884E-2,-2.1975402E-2,-1.1287953E-1,-6.9105156E-2,2.2589552E-1,-8.66667E-3,-9.702083E-2,2.6390452E-2,-8.386179E-2,-1.1554799E-1,-1.1679005E-2,-3.129794E-2,1.1799898E-1,2.1212626E-2,1.7643826E-1,-4.1876424E-2,2.978623E-2,8.62107E-3,1.13525525E-1,7.830256E-2,2.1785381E-1,3.764695E-2,-6.710865E-2,-7.774973E-3,2.2231476E-1,-1.0550679E-1,-2.7098432E-2,6.987289E-2,-9.591055E-2],"categories":[],"categories_nodes":[],"categories_segments":[],"categories_sizes":[],"default_left":[0,0,0,1,0,1,1,0,0,1,0,0,0,0,0,0,1,0,0,1,0,0,0,1,1,0,0,0,0,0,0,1,1,0,0,0,0,0,0,1,0,0,0,0,1,1,0,0,0,1,0,0,0,0,1,0,0,0,0,0,0,0,0,0,0,0,0,0,0,0,0,0,0,0,0,0,0,0,0,0,0,0,0,0,0,0,0,0,0,0,0,0,0,0,0,0,0,0,0,0,0,0,0,0,0,0,0,0,0,0,0,0,0,0,0,0,0,0,0],"id":7,"left_children":[1,3,5,7,9,11,13,15,17,19,21,23,25,27,29,31,33,35,37,39,41,43,-1,45,47,49,51,53,55,57,59,61,63,65,67,69,71,73,75,77,79,81,83,85,87,89,91,93,95,97,99,101,103,105,107,-1,109,111,113,115,117,-1,-1,-1,-1,-1,-1,-1,-1,-1,-1,-1,-1,-1,-1,-1,-1,-1,-1,-1,-1,-1,-1,-1,-1,-1,-1,-1,-1,-1,-1,-1,-1,-1,-1,-1,-1,-1,-1,-1,-1,-1,-1,-1,-1,-1,-1,-1,-1,-1,-1,-1,-1,-1,-1,-1,-1,-1,-1],"loss_changes":[5.1634097E3,5.8664966E2,3.2977124E2,3.077572E2,1.5553223E2,5.8714355E1,7.480915E1,9.9398834E1,1.3859125E2,7.785339E1,6.5682373E0,2.675E1,1.45540695E1,3.6451233E1,1.1901016E1,6.4173134E1,2.9767433E1,5.315033E1,5.339924E1,5.5210297E1,3.8627808E1,4.459961E0,0E0,1.8731445E1,1.10294485E1,6.3173103E0,1.2369794E1,2.8302649E1,6.2128487E0,9.984695E0,4.9411316E0,1.7761871E1,3.0238377E1,1.708087E1,1.7475853E1,1.6484543E1,9.906433E0,4.061843E1,2.0221367E1,2.167994E1,2.4828827E1,1.9623688E1,6.4525757E0,1.159729E0,5.95166E0,1.9232178E1,4.0515137E0,1.0088406E1,7.1143165E0,7.3662176E0,4.587532E0,9.22984E0,3.6498861E0,1.7078289E1,1.581296E1,0E0,3.5723495E-1,9.542835E0,8.6725445E0,4.4854126E0,6.6970253E0,0E0,0E0,0E0,0E0,0E0,0E0,0E0,0E0,0E0,0E0,0E0,0E0,0E0,0E0,0E0,0E0,0E0,0E0,0E0,0E0,0E0,0E0,0E0,0E0,0E0,0E0,0E0,0E0,0E0,0E0,0E0,0E0,0E0,0E0,0E0,0E0,0E0,0E0,0E0,0E0,0E0,0E0,0E0,0E0,0E0,0E0,0E0,0E0,0E0,0E0,0E0,0E0,0E0,0E0,0E0,0E0,0E0,0E0],"parents":[2147483647,0,0,1,1,2,2,3,3,4,4,5,5,6,6,7,7,8,8,9,9,10,10,11,11,12,12,13,13,14,14,15,15,16,16,17,17,18,18,19,19,20,20,21,21,23,23,24,24,25,25,26,26,27,27,28,28,29,29,30,30,31,31,32,32,33,33,34,34,35,35,36,36,37,37,38,38,39,39,40,40,41,41,42,42,43,43,44,44,45,45,46,46,47,47,48,48,49,49,50,50,51,51,52,52,53,53,54,54,56,56,57,57,58,58,59,59,60,60],"right_children":[2,4,6,8,10,12,14,16,18,20,22,24,26,28,30,32,34,36,38,40,42,44,-1,46,48,50,52,54,56,58,60,62,64,66,68,70,72,74,76,78,80,82,84,86,88,90,92,94,96,98,100,102,104,106,108,-1,110,112,114,116,118,-1,-1,-1,-1,-1,-1,-1,-1,-1,-1,-1,-1,-1,-1,-1,-1,-1,-1,-1,-1,-1,-1,-1,-1,-1,-1,-1,-1,-1,-1,-1,-1,-1,-1,-1,-1,-1,-1,-1,-1,-1,-1,-1,-1,-1,-1,-1,-1,-1,-1,-1,-1,-1,-1,-1,-1,-1,-1],"split_conditions":[5.925306E-1,5.2238566E-1,9.070066E-2,9.968654E-3,9.994442E-3,3.7655108E-2,7.471947E-1,1.9708906E-1,4.2092583E-1,2.3151024E-1,6.918407E-1,2.5023234E-1,1.20260164E-1,1.0004542E0,8.233017E-1,4.8567597E-2,2.1398272E-1,2.5197354E-1,1.4365597E-1,1.332479E-1,1.456631E0,2.05422E-2,-5.40761E-2,7.823436E-1,6.067411E-1,6.508343E-1,4.089777E-1,3.7501124E-1,4.6982802E-3,4.6489877E-1,2.380496E0,2.6110718E-1,1.3024573E-1,1.7201737E-1,9.5532285E-3,3.146688E-2,5.048916E-1,2.7982402E0,1.3631631E0,1.417853E-1,2.6333517E-1,7.388173E-1,2.579126E-1,4.1251E-3,1.4378089E-1,2.2972451E-1,4.180291E-1,7.283176E-2,9.539061E0,5.269258E-1,4.2161647E-2,9.91512E-3,2.8511292E-1,9.960827E-3,7.4902326E-2,-2.6168654E-2,1.4118406E-1,2.1763831E-2,4.4800324E0,5.599085E-1,2.9060774E0,-9.5431425E-2,-3.502327E-2,-2.1300847E-2,1.03166774E-1,-2.7096504E-2,7.7141985E-2,4.010754E-2,1.2904538E-1,1.0725438E-1,5.3572007E-2,1.030246E-1,1.4328937E-1,1.9095877E-2,-5.151374E-2,3.340892E-2,8.762142E-2,6.0467785E-3,9.4487354E-2,1.193647E-1,6.709611E-2,7.492449E-2,1.3260871E-1,3.58681E-2,1.2549736E-1,3.4380447E-2,1.55161E-1,8.011855E-2,1.3789241E-1,-1.018213E-1,-6.3861884E-2,-2.1975402E-2,-1.1287953E-1,-6.9105156E-2,2.2589552E-1,-8.66667E-3,-9.702083E-2,2.6390452E-2,-8.386179E-2,-1.1554799E-1,-1.1679005E-2,-3.129794E-2,1.1799898E-1,2.1212626E-2,1.7643826E-1,-4.1876424E-2,2.978623E-2,8.62107E-3,1.13525525E-1,7.830256E-2,2.1785381E-1,3.764695E-2,-6.710865E-2,-7.774973E-3,2.2231476E-1,-1.0550679E-1,-2.7098432E-2,6.987289E-2,-9.591055E-2],"split_indices":[14,6,2,10,18,8,14,19,14,20,0,17,19,18,14,2,20,17,5,10,9,3,0,14,14,0,8,2,11,20,9,20,8,2,17,3,10,12,9,8,14,2,13,11,20,20,16,11,1,16,5,17,20,17,8,0,20,3,4,5,9,0,0,0,0,0,0,0,0,0,0,0,0,0,0,0,0,0,0,0,0,0,0,0,0,0,0,0,0,0,0,0,0,0,0,0,0,0,0,0,0,0,0,0,0,0,0,0,0,0,0,0,0,0,0,0,0,0,0],"split_type":[0,0,0,0,0,0,0,0,0,0,0,0,0,0,0,0,0,0,0,0,0,0,0,0,0,0,0,0,0,0,0,0,0,0,0,0,0,0,0,0,0,0,0,0,0,0,0,0,0,0,0,0,0,0,0,0,0,0,0,0,0,0,0,0,0,0,0,0,0,0,0,0,0,0,0,0,0,0,0,0,0,0,0,0,0,0,0,0,0,0,0,0,0,0,0,0,0,0,0,0,0,0,0,0,0,0,0,0,0,0,0,0,0,0,0,0,0,0,0],"sum_hessian":[8.600546E3,4.5783457E3,4.0222002E3,2.1877993E3,2.3905466E3,3.2825337E3,7.396664E2,7.497029E2,1.4380964E3,1.7744137E3,6.161328E2,3.1438462E3,1.3868765E2,4.9981625E2,2.3985014E2,4.9820074E2,2.515021E2,7.408473E2,6.9724915E2,8.020485E2,9.7236523E2,6.1492065E2,1.2121397E0,3.102228E3,4.161801E1,5.9318703E1,7.936895E1,4.8998557E2,9.830691E0,1.08324425E2,1.3152571E2,2.7818842E2,2.2001233E2,1.1415343E2,1.3734868E2,4.3163998E2,3.0920734E2,4.1223987E2,2.8500925E2,2.2203314E2,5.800154E2,4.8814935E2,4.842159E2,2.787358E2,3.3618484E2,9.939901E2,2.108238E3,3.3732164E0,3.8244797E1,2.2636251E1,3.668245E1,7.334264E1,6.0263076E0,2.791884E2,2.1079716E2,1.1372877E0,8.693404E0,1.0179386E2,6.530563E0,1.237439E2,7.7818203E0,2.1312503E2,6.506338E1,1.9938075E2,2.063158E1,9.639378E1,1.775964E1,1.1009693E2,2.7251747E1,6.877577E1,3.628642E2,2.0538844E2,1.0381889E2,3.0177936E2,1.1046053E2,1.6568808E2,1.1932116E2,1.9056418E2,3.1468956E1,1.1534247E2,4.6467288E2,4.176545E2,7.049483E1,9.150443E0,4.7506546E2,1.4502351E0,2.7728558E2,2.4051153E1,3.121337E2,8.267877E2,1.672024E2,5.4577136E0,2.1027803E3,1.2480273E0,2.125189E0,2.4532854E1,1.3711943E1,1.0720378E1,1.1915874E1,3.151455E1,5.167902E0,6.9918945E1,3.4236968E0,2.8704123E0,3.1558952E0,2.4137611E2,3.7812294E1,1.9627124E2,1.4525934E1,1.7716551E0,6.9217486E0,8.949459E0,9.2844406E1,5.1761584E0,1.3544046E0,1.1508306E2,8.660833E0,3.818281E0,3.9635396E0],"tree_param":{"num_deleted":"0","num_feature":"21","num_nodes":"119","size_leaf_vector":"1"}},{"base_weights":[-6.819264E-2,5.6442446E-1,-8.9410377E-1,8.991705E-1,1.8961474E-1,-1.011554E0,-2.3529497E-1,7.252427E-1,1.2768456E0,-2.6291654E-1,4.6567935E-1,-1.0374442E0,-3.1367683E-1,2.5848437E-2,-5.834852E-1,5.0318867E-1,1.0075219E0,1.305853E0,4.5479423E-1,-4.5065212E-1,2.805642E-1,3.691916E-1,9.653506E-1,-4.1742983E-1,-1.0520486E0,5.3596508E-2,-5.615733E-1,-6.892874E-2,1.0156738E0,-6.539707E-1,4.671456E-1,1.3862303E-1,7.3588073E-1,8.012234E-1,1.1361473E0,1.4393983E0,1.2130845E0,-6.5900445E-1,8.5510373E-1,-7.86817E-1,-1.4599122E-1,-1.3296813E-1,4.6542814E-1,3.1961894E-1,1.2803407E0,8.820219E-1,1.4711308E0,-6.6063404E-1,3.1688488E-1,-8.539228E-1,-1.0876043E0,1.0317553E0,-1.0205655E-1,-8.0905356E-2,-7.840882E-1,-1.6448113E-1,8.1894964E-1,4.9638325E-1,1.6382293E0,1.2669012E-1,-7.327962E-1,1.0926139E0,-5.588826E-1,4.5813262E-2,-1.873108E-2,1.12006605E-1,5.783307E-2,4.923389E-2,9.5087685E-2,1.0459924E-1,1.3478735E-1,3.2344326E-2,1.4510305E-1,1.3203572E-1,1.02311134E-1,-9.982546E-2,7.066498E-2,1.3491262E-1,2.9238818E-2,-5.028239E-2,-9.938347E-2,-3.7402634E-2,1.6332816E-2,1.9410163E-2,-7.9749174E-2,6.719897E-2,-4.7267205E-3,1.4625353E-2,5.6768395E-2,-5.967557E-2,1.3686098E-1,7.528139E-2,1.2839288E-1,-3.3286642E-2,1.5765983E-1,-1.3538167E-2,-8.198183E-2,7.553058E-2,-6.595587E-2,-8.751075E-2,1.151899E-1,-1.0887896E-1,6.146453E-2,1.380689E-1,-2.8142903E-2,-1.0266578E-1,5.761545E-3,-3.8066737E-2,7.894202E-2,-8.48721E-2,5.0699312E-2,-2.1639144E-2,1.2825741E-1,1.24741115E-1,2.481488E-2,7.432034E-2,-9.4433896E-2,2.2874026E-2,1.7490846E-1,-8.8231005E-2,5.160267E-2,-7.599317E-2,3.9742358E-2,-3.7008967E-2,1.3856906E-1,-9.424034E-2,2.4694696E-2],"categories":[],"categories_nodes":[],"categories_segments":[],"categories_sizes":[],"default_left":[0,0,0,0,0,1,1,1,0,1,0,0,0,1,0,1,0,0,0,1,0,0,1,0,0,0,0,0,0,0,0,0,0,0,0,0,0,0,0,0,1,0,0,0,0,0,0,0,0,0,0,0,0,0,0,1,0,0,0,0,1,0,1,0,0,0,0,0,0,0,0,0,0,0,0,0,0,0,0,0,0,0,0,0,0,0,0,0,0,0,0,0,0,0,0,0,0,0,0,0,0,0,0,0,0,0,0,0,0,0,0,0,0,0,0,0,0,0,0,0,0,0,0,0,0,0,0],"id":8,"left_children":[1,3,5,7,9,11,13,15,17,19,21,23,25,27,29,31,33,35,37,39,41,43,45,47,49,51,53,55,57,59,61,63,65,67,69,71,73,75,77,79,81,83,85,87,89,91,93,95,97,99,101,103,105,107,109,111,113,115,117,119,121,123,125,-1,-1,-1,-1,-1,-1,-1,-1,-1,-1,-1,-1,-1,-1,-1,-1,-1,-1,-1,-1,-1,-1,-1,-1,-1,-1,-1,-1,-1,-1,-1,-1,-1,-1,-1,-1,-1,-1,-1,-1,-1,-1,-1,-1,-1,-1,-1,-1,-1,-1,-1,-1,-1,-1,-1,-1,-1,-1,-1,-1,-1,-1,-1,-1],"loss_changes":[4.3443438E3,5.9057544E2,2.7881372E2,1.6243164E2,2.7778064E2,5.4971436E1,4.9748775E1,1.0636682E2,1.807312E1,8.611395E1,6.6214264E1,2.6277588E1,1.012794E1,2.9480848E1,1.7667824E1,8.102409E1,1.8983582E1,7.61499E0,1.3144114E1,6.40767E1,1.6650196E1,5.1937286E1,8.095062E0,1.2631528E1,1.9373291E1,7.04902E0,7.0280647E0,2.4487408E1,8.06395E0,1.3638763E1,1.0444566E1,3.901455E1,3.4670837E1,1.2998123E1,7.359192E0,3.4818115E0,7.8652954E0,4.4232635E0,5.4966364E0,1.7005539E1,2.3339256E1,1.4893682E1,1.5936012E1,4.7243225E1,1.0669838E1,9.099136E0,6.2376328E0,4.284994E0,8.19596E0,1.983899E1,5.592041E0,3.298677E0,6.002168E0,6.0651417E0,4.2026615E0,1.980716E1,6.552334E0,6.535752E0,1.4832077E0,8.721154E0,6.438568E0,4.7390385E0,2.2307744E0,0E0,0E0,0E0,0E0,0E0,0E0,0E0,0E0,0E0,0E0,0E0,0E0,0E0,0E0,0E0,0E0,0E0,0E0,0E0,0E0,0E0,0E0,0E0,0E0,0E0,0E0,0E0,0E0,0E0,0E0,0E0,0E0,0E0,0E0,0E0,0E0,0E0,0E0,0E0,0E0,0E0,0E0,0E0,0E0,0E0,0E0,0E0,0E0,0E0,0E0,0E0,0E0,0E0,0E0,0E0,0E0,0E0,0E0,0E0,0E0,0E0,0E0,0E0,0E0],"parents":[2147483647,0,0,1,1,2,2,3,3,4,4,5,5,6,6,7,7,8,8,9,9,10,10,11,11,12,12,13,13,14,14,15,15,16,16,17,17,18,18,19,19,20,20,21,21,22,22,23,23,24,24,25,25,26,26,27,27,28,28,29,29,30,30,31,31,32,32,33,33,34,34,35,35,36,36,37,37,38,38,39,39,40,40,41,41,42,42,43,43,44,44,45,45,46,46,47,47,48,48,49,49,50,50,51,51,52,52,53,53,54,54,55,55,56,56,57,57,58,58,59,59,60,60,61,61,62,62],"right_children":[2,4,6,8,10,12,14,16,18,20,22,24,26,28,30,32,34,36,38,40,42,44,46,48,50,52,54,56,58,60,62,64,66,68,70,72,74,76,78,80,82,84,86,88,90,92,94,96,98,100,102,104,106,108,110,112,114,116,118,120,122,124,126,-1,-1,-1,-1,-1,-1,-1,-1,-1,-1,-1,-1,-1,-1,-1,-1,-1,-1,-1,-1,-1,-1,-1,-1,-1,-1,-1,-1,-1,-1,-1,-1,-1,-1,-1,-1,-1,-1,-1,-1,-1,-1,-1,-1,-1,-1,-1,-1,-1,-1,-1,-1,-1,-1,-1,-1,-1,-1,-1,-1,-1,-1,-1,-1],"split_conditions":[6.095219E-1,4.0412015E-1,1.2261138E-1,9.994442E-3,8.83663E-2,4.5429766E-2,7.121769E-1,3.7653446E-1,6.09826E-1,8.305466E-2,7.095786E-1,4.7452492E-1,5.560328E0,6.731892E-2,4.7449756E-1,2.1083206E-1,1.5985532E0,2.05422E-2,9.775724E-2,4.185886E-2,2.0931719E-1,9.994442E-3,9.382777E-2,2.3231108E0,5.8447164E-1,5.5154735E-1,6.502301E-1,9.186075E-1,4.6982777E-1,2.1763831E-2,7.853113E-1,1.0173527E-1,3.2326426E-2,5.456733E-1,3.3103955E-1,2.221961E-2,1.0638369E0,6.4177215E-2,1.9479793E-1,9.996406E0,1.9813968E-1,9.827277E-1,6.5877028E0,2.585591E-1,2.8448833E-2,2.5981012E-1,1.167793E-2,3.7461227E-1,8.153224E0,9.994442E-3,6.832987E-1,7.405141E-2,1.5015508E-1,4.5519933E-1,6.832987E-1,5.014255E-1,6.704438E-2,8.967784E-3,5.4498734E-3,7.273042E-1,4.5429766E-2,1.1020985E0,6.245993E-3,4.5813262E-2,-1.873108E-2,1.12006605E-1,5.783307E-2,4.923389E-2,9.5087685E-2,1.0459924E-1,1.3478735E-1,3.2344326E-2,1.4510305E-1,1.3203572E-1,1.02311134E-1,-9.982546E-2,7.066498E-2,1.3491262E-1,2.9238818E-2,-5.028239E-2,-9.938347E-2,-3.7402634E-2,1.6332816E-2,1.9410163E-2,-7.9749174E-2,6.719897E-2,-4.7267205E-3,1.4625353E-2,5.6768395E-2,-5.967557E-2,1.3686098E-1,7.528139E-2,1.2839288E-1,-3.3286642E-2,1.5765983E-1,-1.3538167E-2,-8.198183E-2,7.553058E-2,-6.595587E-2,-8.751075E-2,1.151899E-1,-1.0887896E-1,6.146453E-2,1.380689E-1,-2.8142903E-2,-1.0266578E-1,5.761545E-3,-3.8066737E-2,7.894202E-2,-8.48721E-2,5.0699312E-2,-2.1639144E-2,1.2825741E-1,1.24741115E-1,2.481488E-2,7.432034E-2,-9.4433896E-2,2.2874026E-2,1.7490846E-1,-8.8231005E-2,5.160267E-2,-7.599317E-2,3.9742358E-2,-3.7008967E-2,1.3856906E-1,-9.424034E-2,2.4694696E-2],"split_indices":[14,14,2,18,2,8,14,10,0,8,5,16,4,8,20,20,9,3,19,11,20,18,8,9,0,15,0,2,13,3,14,3,3,6,2,5,12,2,16,4,20,3,1,20,8,17,19,16,1,18,19,2,20,12,19,7,19,18,11,12,8,1,11,0,0,0,0,0,0,0,0,0,0,0,0,0,0,0,0,0,0,0,0,0,0,0,0,0,0,0,0,0,0,0,0,0,0,0,0,0,0,0,0,0,0,0,0,0,0,0,0,0,0,0,0,0,0,0,0,0,0,0,0,0,0,0,0],"split_type":[0,0,0,0,0,0,0,0,0,0,0,0,0,0,0,0,0,0,0,0,0,0,0,0,0,0,0,0,0,0,0,0,0,0,0,0,0,0,0,0,0,0,0,0,0,0,0,0,0,0,0,0,0,0,0,0,0,0,0,0,0,0,0,0,0,0,0,0,0,0,0,0,0,0,0,0,0,0,0,0,0,0,0,0,0,0,0,0,0,0,0,0,0,0,0,0,0,0,0,0,0,0,0,0,0,0,0,0,0,0,0,0,0,0,0,0,0,0,0,0,0,0,0,0,0,0,0],"sum_hessian":[8.312798E3,4.707412E3,3.6053855E3,2.4858645E3,2.2215479E3,3.059426E3,5.459594E2,1.7040371E3,7.8182733E2,8.4176135E2,1.3797864E3,2.9495166E3,1.0990949E2,3.1250543E2,2.33454E2,9.553202E2,7.48717E2,7.5461115E2,2.7216204E1,6.2577094E2,2.1599043E2,1.1579268E3,2.2185963E2,6.8557594E1,2.880959E3,4.4606346E1,6.530315E1,2.8604645E2,2.6458994E1,2.1913034E2,1.43236475E1,3.728152E2,5.8250494E2,2.903163E2,4.5840067E2,3.0337302E2,4.5123813E2,7.024736E0,2.0191467E1,2.9675113E2,3.2901978E2,6.681315E1,1.4917729E2,1.0994596E3,5.8467243E1,1.9283365E2,2.9025988E1,5.1576015E1,1.6981577E1,4.4215652E2,2.4388025E3,5.3509865E0,3.925536E1,2.1095991E1,4.4207153E1,2.589891E2,2.7057344E1,1.5405871E1,1.10531225E1,2.0041252E1,1.990891E2,8.85856E0,5.4650884E0,1.8805814E2,1.8475706E2,1.6763013E2,4.1487485E2,9.6150894E1,1.9416542E2,3.2566846E2,1.3273222E2,3.4267523E0,2.9994626E2,2.8458844E2,1.6664967E2,5.842416E0,1.1823201E0,1.0007819E1,1.0183648E1,1.26560524E2,1.7019061E2,1.8927446E2,1.3974532E2,4.5249733E1,2.1563414E1,1.0611397E2,4.3063316E1,6.4810645E2,4.5135312E2,2.3671772E0,5.6100067E1,1.480958E2,4.4737854E1,1.4841323E0,2.7541857E1,1.2425779E1,3.9150238E1,1.1875831E1,5.105747E0,4.380933E2,4.0632515E0,2.4374656E3,1.3369148E0,4.1870236E0,1.1639628E0,4.981213E0,3.4274147E1,1.610994E1,4.986053E0,4.24259E1,1.7812551E0,2.5084113E2,8.147979E0,1.4778647E1,1.2278696E1,1.3565941E1,1.8399303E0,1.0293018E0,1.002382E1,5.227509E0,1.4813743E1,1.9474117E2,4.3479214E0,1.4348174E0,7.423742E0,3.5879722E0,1.8771161E0],"tree_param":{"num_deleted":"0","num_feature":"21","num_nodes":"127","size_leaf_vector":"1"}},{"base_weights":[-5.5181008E-2,5.257995E-1,-8.604422E-1,2.014622E-1,8.4124935E-1,-2.034697E-1,-9.9048597E-1,-2.4718073E-1,4.4662392E-1,7.097683E-1,1.2609993E0,-2.4670322E-1,1.8368008E0,-1.0209752E0,-2.0888229E-1,-5.4279137E-1,1.2723337E-1,3.2812172E-1,1.1353393E0,5.808642E-1,1.0413278E0,1.393387E0,1.151697E0,-1.21747926E-1,-8.68635E-1,1.4611417E-2,1.9907329E0,-1.0297552E0,3.3361056E-1,-3.758551E-1,8.8413554E-1,2.2994725E-1,-6.466046E-1,-5.3654187E-3,7.173762E-1,6.596546E-2,5.2821517E-1,1.1731234E0,1.1754276E-2,8.939455E-1,4.723924E-1,7.955875E-1,1.1524544E0,2.8410146E-2,1.3985641E-1,9.383993E-1,1.2520036E0,-3.2587716E-1,1.6352603E-1,-9.2026436E-1,7.7310555E-2,8.360625E-1,2.2632551E-1,-9.01449E-1,-1.0900137E0,-1.6780369E-1,1.0451787E0,2.1355694E-2,-6.13211E-1,-5.0311644E-2,1.0778354E0,3.160374E-3,8.913016E-2,-7.15082E-2,3.8080428E-2,-2.255132E-2,3.8454846E-2,8.645492E-2,-3.646509E-2,-1.1055649E-2,4.127362E-2,4.4374555E-2,9.3469836E-2,3.629728E-2,1.2144565E-1,-6.448176E-2,9.260732E-2,6.1371174E-2,1.0003755E-1,2.917037E-2,7.0503436E-2,8.468803E-2,-5.517862E-2,-4.8746694E-2,1.17095925E-1,1.1752554E-1,6.460553E-2,9.666576E-3,1.2675737E-1,-4.412509E-2,2.5168557E-2,1.498508E-1,6.4795064E-3,1.369405E-2,-9.3937926E-2,-4.936149E-2,1.2847708E-1,1.2753636E-1,3.762982E-3,-9.572343E-2,-6.3271016E-2,4.3642137E-2,-1.09263316E-1,-9.7002804E-2,3.8404368E-2,-1.6533026E-2,2.1135369E-1,1.763892E-2,-8.739906E-2,-7.256027E-2,1.8698279E-3,5.9747053E-3,1.4204918E-1],"categories":[],"categories_nodes":[],"categories_segments":[],"categories_sizes":[],"default_left":[0,0,1,1,0,0,1,1,0,0,0,1,0,1,0,0,0,1,0,0,0,0,0,1,0,0,0,1,0,0,0,0,0,1,0,0,0,0,0,0,0,0,0,0,0,0,0,0,0,0,0,1,0,1,0,0,0,0,0,0,0,0,0,0,0,0,0,0,0,0,0,0,0,0,0,0,0,0,0,0,0,0,0,0,0,0,0,0,0,0,0,0,0,0,0,0,0,0,0,0,0,0,0,0,0,0,0,0,0,0,0,0,0],"id":9,"left_children":[1,3,5,7,9,11,13,15,17,19,21,23,25,27,29,31,33,35,37,39,41,43,45,47,49,-1,51,53,55,57,59,61,63,65,67,69,71,73,75,77,79,81,83,-1,-1,85,87,89,91,93,95,97,-1,99,101,103,105,107,109,-1,111,-1,-1,-1,-1,-1,-1,-1,-1,-1,-1,-1,-1,-1,-1,-1,-1,-1,-1,-1,-1,-1,-1,-1,-1,-1,-1,-1,-1,-1,-1,-1,-1,-1,-1,-1,-1,-1,-1,-1,-1,-1,-1,-1,-1,-1,-1,-1,-1,-1,-1,-1,-1],"loss_changes":[3.7601284E3,4.775083E2,2.8757812E2,2.5345055E2,1.2971167E2,4.9659218E1,6.67876E1,9.022236E1,1.21213684E2,7.651166E1,6.5446777E0,4.2415047E1,2.752449E0,3.2523926E1,1.9826414E1,3.6677628E1,2.8188532E1,6.67135E1,9.253662E0,4.3776917E1,1.2842468E1,1.0379639E0,5.5486145E0,2.6652351E1,4.533798E0,0E0,1.4555206E0,1.98042E1,6.661917E0,8.8152275E0,4.4260244E0,7.142827E0,2.8532883E1,2.5416815E1,1.0839432E1,3.3832264E1,2.4358795E1,6.63089E0,5.467024E0,9.340912E0,4.0515167E1,1.1533775E1,1.1032043E1,0E0,0E0,6.4770966E0,3.6685486E0,1.7875242E1,2.5101797E1,1.8811874E0,4.530244E0,1.220778E0,0E0,1.2361328E1,7.772217E0,5.4754534E0,1.0247449E1,5.1356697E0,4.1664505E0,0E0,4.450469E0,0E0,0E0,0E0,0E0,0E0,0E0,0E0,0E0,0E0,0E0,0E0,0E0,0E0,0E0,0E0,0E0,0E0,0E0,0E0,0E0,0E0,0E0,0E0,0E0,0E0,0E0,0E0,0E0,0E0,0E0,0E0,0E0,0E0,0E0,0E0,0E0,0E0,0E0,0E0,0E0,0E0,0E0,0E0,0E0,0E0,0E0,0E0,0E0,0E0,0E0,0E0,0E0],"parents":[2147483647,0,0,1,1,2,2,3,3,4,4,5,5,6,6,7,7,8,8,9,9,10,10,11,11,12,12,13,13,14,14,15,15,16,16,17,17,18,18,19,19,20,20,21,21,22,22,23,23,24,24,26,26,27,27,28,28,29,29,30,30,31,31,32,32,33,33,34,34,35,35,36,36,37,37,38,38,39,39,40,40,41,41,42,42,45,45,46,46,47,47,48,48,49,49,50,50,51,51,53,53,54,54,55,55,56,56,57,57,58,58,60,60],"right_children":[2,4,6,8,10,12,14,16,18,20,22,24,26,28,30,32,34,36,38,40,42,44,46,48,50,-1,52,54,56,58,60,62,64,66,68,70,72,74,76,78,80,82,84,-1,-1,86,88,90,92,94,96,98,-1,100,102,104,106,108,110,-1,112,-1,-1,-1,-1,-1,-1,-1,-1,-1,-1,-1,-1,-1,-1,-1,-1,-1,-1,-1,-1,-1,-1,-1,-1,-1,-1,-1,-1,-1,-1,-1,-1,-1,-1,-1,-1,-1,-1,-1,-1,-1,-1,-1,-1,-1,-1,-1,-1,-1,-1,-1,-1],"split_conditions":[6.095219E-1,5.2238566E-1,2.0211236E-1,9.968654E-3,9.994442E-3,1.0004542E0,4.5429766E-2,2.1566011E-1,9.952536E-3,2.6647785E-1,2.05422E-2,8.233017E-1,4.3253773E-3,5.003813E-1,1.2261138E-1,3.2326426E-2,9.507072E-3,1.9301483E-1,1.2488866E1,2.4613231E-2,2.1762349E-1,4.1251E-3,2.5528714E-1,1.9683506E-1,2.3535893E0,1.4611417E-2,1.4442328E-1,7.823436E-1,3.993856E-1,5.560328E0,1.9096928E-3,9.444596E-3,4.7903085E-1,8.418401E-2,1.0583882E1,3.7728414E-1,3.9925876E0,6.8396456E-3,2.2665348E0,6.1166704E-1,2.5646222E-1,8.996834E-1,1.3143456E-1,2.8410146E-2,1.3985641E-1,1.3801606E-1,2.832303E-3,6.386872E-1,3.2945395E-1,6.631932E-2,5.629448E0,7.7906E-3,2.2632551E-1,2.2972451E-1,3.966035E-1,3.6980843E-3,5.886565E-1,2.879199E-1,2.81964E0,-5.0311644E-2,1.7607675E-1,3.160374E-3,8.913016E-2,-7.15082E-2,3.8080428E-2,-2.255132E-2,3.8454846E-2,8.645492E-2,-3.646509E-2,-1.1055649E-2,4.127362E-2,4.4374555E-2,9.3469836E-2,3.629728E-2,1.2144565E-1,-6.448176E-2,9.260732E-2,6.1371174E-2,1.0003755E-1,2.917037E-2,7.0503436E-2,8.468803E-2,-5.517862E-2,-4.8746694E-2,1.17095925E-1,1.1752554E-1,6.460553E-2,9.666576E-3,1.2675737E-1,-4.412509E-2,2.5168557E-2,1.498508E-1,6.4795064E-3,1.369405E-2,-9.3937926E-2,-4.936149E-2,1.2847708E-1,1.2753636E-1,3.762982E-3,-9.572343E-2,-6.3271016E-2,4.3642137E-2,-1.09263316E-1,-9.7002804E-2,3.8404368E-2,-1.6533026E-2,2.1135369E-1,1.763892E-2,-8.739906E-2,-7.256027E-2,1.8698279E-3,5.9747053E-3,1.4204918E-1],"split_indices":[14,6,3,10,18,18,8,20,18,19,3,14,11,7,2,3,17,20,4,3,20,11,10,20,9,0,20,14,6,4,17,18,19,8,4,10,9,2,9,6,20,3,13,0,0,14,17,2,4,0,12,11,0,20,16,17,0,12,9,0,20,0,0,0,0,0,0,0,0,0,0,0,0,0,0,0,0,0,0,0,0,0,0,0,0,0,0,0,0,0,0,0,0,0,0,0,0,0,0,0,0,0,0,0,0,0,0,0,0,0,0,0,0],"split_type":[0,0,0,0,0,0,0,0,0,0,0,0,0,0,0,0,0,0,0,0,0,0,0,0,0,0,0,0,0,0,0,0,0,0,0,0,0,0,0,0,0,0,0,0,0,0,0,0,0,0,0,0,0,0,0,0,0,0,0,0,0,0,0,0,0,0,0,0,0,0,0,0,0,0,0,0,0,0,0,0,0,0,0,0,0,0,0,0,0,0,0,0,0,0,0,0,0,0,0,0,0,0,0,0,0,0,0,0,0,0,0,0,0],"sum_hessian":[8.035226E3,4.667826E3,3.3674E3,2.3023E3,2.365526E3,5.568409E2,2.810559E3,8.1353424E2,1.4887659E3,1.8033435E3,5.621824E2,5.4614703E2,1.0693825E1,2.7047444E3,1.0581456E2,4.5435684E2,3.591774E2,1.2714697E3,2.1729608E2,1.3004897E3,5.028538E2,2.4892953E2,3.1325287E2,4.5577155E2,9.037549E1,1.0550523E0,9.638773E0,2.6875642E3,1.7180233E1,9.236129E1,1.3453266E1,5.3667244E1,4.006896E2,2.940895E2,6.508787E1,5.5095514E2,7.2051465E2,2.101839E2,7.1121855E0,3.327718E2,9.6771796E2,1.5912688E2,3.4372693E2,1.4159533E0,2.4751358E2,1.0350635E2,2.097465E2,2.6558707E2,1.901845E2,8.572386E1,4.651628E0,2.6172814E0,7.021491E0,8.63949E2,1.8236152E3,1.0526674E1,6.6535587E0,3.488758E1,5.747371E1,1.4525937E0,1.2000672E1,4.209156E1,1.1575684E1,3.7593716E2,2.4752438E1,1.882334E2,1.0585612E2,5.747178E1,7.616093E0,3.6555325E2,1.8540192E2,5.982801E2,1.22234505E2,1.0677653E1,1.9950624E2,4.3111253E0,2.8010602E0,9.345853E1,2.3931325E2,5.4594586E2,4.217721E2,1.536491E2,5.477771E0,3.5525477E0,3.4017438E2,5.5511242E1,4.799511E1,2.8849366E0,2.0686157E2,2.215636E2,4.402347E1,1.2120503E1,1.7806398E2,1.4129453E0,8.431091E1,3.5596898E0,1.0919383E0,1.3030202E0,1.3142611E0,7.1331586E2,1.5063315E2,2.8403206E0,1.8207749E3,3.9812784E0,6.545396E0,3.5155237E0,3.138035E0,3.0422733E1,4.4648485E0,4.866912E1,8.804589E0,3.3176744E0,8.682998E0],"tree_param":{"num_deleted":"0","num_feature":"21","num_nodes":"113","size_leaf_vector":"1"}},{"base_weights":[-5.9562135E-2,4.7237918E-1,-8.347792E-1,8.5247433E-1,2.1017149E-1,-2.1306033E-1,-9.680989E-1,6.294573E-1,1.0913311E0,4.7526503E-1,-1.2802954E-1,-3.601333E-1,3.9699158E-1,-9.9798596E-1,-2.5535437E-1,7.28417E-2,7.1102256E-1,1.281206E0,9.598904E-1,2.9614708E-1,7.441187E-1,-2.9608172E-1,4.464738E-1,-3.9311326E-1,1.2873048E0,3.0693704E-1,1.6688149E0,-1.0458953E0,-7.223856E-1,2.7421868E-1,-4.4737384E-1,-1.11326106E-1,1.1414887E0,1.0695722E0,6.0781693E-1,1.2897147E0,1.939265E-1,1.1258569E0,7.1566254E-1,2.3029532E-1,1.1944939E0,3.267266E-1,8.4037095E-1,-5.176198E-1,1.6388047E-1,1.1607467E-1,7.0200145E-1,-2.893498E-1,-8.294717E-1,2.1955997E-1,1.7539177E0,1.9027445E-1,1.1429545E0,4.6124067E-2,1.8221375E-1,-1.0537555E0,-3.4564376E-1,-5.214549E-1,-9.415246E-1,-1.6898725E-2,1.0644518E0,-6.975921E-1,-7.8775294E-2,-3.7859034E-2,4.8971646E-2,1.3984294E-1,-8.546603E-3,1.0852883E-1,-7.355684E-2,3.854659E-2,7.909738E-2,2.9501647E-2,1.29381E-1,-6.679403E-2,8.904932E-2,3.3336416E-2,1.151725E-1,8.48132E-2,2.4790477E-2,1.0370127E-2,6.711954E-2,5.4876644E-2,1.433312E-1,1.0966615E-2,8.0143444E-2,-2.4231631E-4,8.804144E-2,-5.6201924E-2,8.0120616E-2,8.823276E-3,1.0075962E-1,1.2106126E-1,-3.861796E-3,5.931762E-2,1.5894964E-1,-3.8084652E-2,1.2432276E-2,-3.439023E-3,-8.821903E-2,1.0191947E-1,-7.751018E-2,5.3522874E-2,1.9053638E-1,4.037634E-3,8.678404E-2,2.5970956E-2,1.5057044E-1,-1.05600275E-1,1.2923241E-2,-6.367951E-2,9.052195E-2,-5.8287002E-2,4.0162295E-2,-9.572512E-2,8.712957E-2,-4.5295443E-2,5.393542E-2,1.8502346E-1,5.430527E-3,3.676504E-2,-8.310556E-2,1.0545111E-2,-9.0911776E-2],"categories":[],"categories_nodes":[],"categories_segments":[],"categories_sizes":[],"default_left":[0,0,1,0,0,0,1,0,0,0,1,0,0,1,1,1,0,0,0,0,1,1,0,1,0,1,0,0,1,1,1,1,0,0,0,0,0,0,0,1,0,0,0,0,0,0,0,0,0,0,0,0,0,0,0,1,0,0,0,0,0,0,0,0,0,0,0,0,0,0,0,0,0,0,0,0,0,0,0,0,0,0,0,0,0,0,0,0,0,0,0,0,0,0,0,0,0,0,0,0,0,0,0,0,0,0,0,0,0,0,0,0,0,0,0,0,0,0,0,0,0,0,0],"id":10,"left_children":[1,3,5,7,9,11,13,15,17,19,21,23,25,27,29,31,33,35,37,39,41,43,45,47,49,51,53,55,57,59,61,63,65,67,69,71,73,75,77,79,81,83,85,87,89,91,93,95,97,99,101,103,105,-1,-1,107,109,111,113,115,117,119,121,-1,-1,-1,-1,-1,-1,-1,-1,-1,-1,-1,-1,-1,-1,-1,-1,-1,-1,-1,-1,-1,-1,-1,-1,-1,-1,-1,-1,-1,-1,-1,-1,-1,-1,-1,-1,-1,-1,-1,-1,-1,-1,-1,-1,-1,-1,-1,-1,-1,-1,-1,-1,-1,-1,-1,-1,-1,-1,-1,-1],"loss_changes":[3.2010664E3,4.5864612E2,2.6162866E2,9.940857E1,2.4443063E2,5.0303383E1,5.5148438E1,4.417331E1,2.1380127E1,7.337225E1,1.1584076E2,2.5009396E1,1.1980507E1,3.2199463E1,1.0903179E1,2.4849268E1,3.0784943E1,3.1507568E0,2.1055511E1,5.4080215E1,2.4247284E1,9.463111E1,2.2851406E1,1.9813828E1,4.141309E0,9.836866E0,4.532318E-1,1.1325928E1,1.5926239E1,6.650611E0,7.155959E0,1.7543806E1,5.968931E0,6.147476E0,2.6652847E1,1.1034546E0,3.015039E0,6.163269E0,1.34814E1,4.778123E1,8.853767E0,1.1866343E1,1.6719788E1,3.7133057E1,1.9210346E1,2.0307116E1,1.3831581E1,1.3648745E1,3.513668E0,3.8966434E0,1.2064552E-1,9.274849E0,3.5896015E0,0E0,0E0,5.7192383E0,9.70473E0,1.1387844E1,5.883148E0,5.5935874E0,6.072917E0,6.908386E0,5.1042833E0,0E0,0E0,0E0,0E0,0E0,0E0,0E0,0E0,0E0,0E0,0E0,0E0,0E0,0E0,0E0,0E0,0E0,0E0,0E0,0E0,0E0,0E0,0E0,0E0,0E0,0E0,0E0,0E0,0E0,0E0,0E0,0E0,0E0,0E0,0E0,0E0,0E0,0E0,0E0,0E0,0E0,0E0,0E0,0E0,0E0,0E0,0E0,0E0,0E0,0E0,0E0,0E0,0E0,0E0,0E0,0E0,0E0,0E0,0E0,0E0],"parents":[2147483647,0,0,1,1,2,2,3,3,4,4,5,5,6,6,7,7,8,8,9,9,10,10,11,11,12,12,13,13,14,14,15,15,16,16,17,17,18,18,19,19,20,20,21,21,22,22,23,23,24,24,25,25,26,26,27,27,28,28,29,29,30,30,31,31,32,32,33,33,34,34,35,35,36,36,37,37,38,38,39,39,40,40,41,41,42,42,43,43,44,44,45,45,46,46,47,47,48,48,49,49,50,50,51,51,52,52,55,55,56,56,57,57,58,58,59,59,60,60,61,61,62,62],"right_children":[2,4,6,8,10,12,14,16,18,20,22,24,26,28,30,32,34,36,38,40,42,44,46,48,50,52,54,56,58,60,62,64,66,68,70,72,74,76,78,80,82,84,86,88,90,92,94,96,98,100,102,104,106,-1,-1,108,110,112,114,116,118,120,122,-1,-1,-1,-1,-1,-1,-1,-1,-1,-1,-1,-1,-1,-1,-1,-1,-1,-1,-1,-1,-1,-1,-1,-1,-1,-1,-1,-1,-1,-1,-1,-1,-1,-1,-1,-1,-1,-1,-1,-1,-1,-1,-1,-1,-1,-1,-1,-1,-1,-1,-1,-1,-1,-1,-1,-1,-1,-1,-1,-1],"split_conditions":[6.095219E-1,3.532123E-1,2.1570918E-1,5.004294E-1,1.2838504E-1,5.3105307E-1,4.5429766E-2,2.8200097E-2,2.8608259E-2,1.4246023E0,1.3024573E-1,9.994442E-3,9.772459E-3,2.499883E-2,6.26139E-1,3.767082E-1,1.7431773E-1,4.4726562E-1,2.1584395E-1,9.952536E-3,1.5540975E-1,1.3498199E-1,2.7158847E-1,8.233017E-1,1.6601728E-1,1.9244207E-2,5.2284887E-3,4.2327207E-1,7.286367E-1,5.6470186E-1,2.433124E-1,2.591407E-1,3.2636613E-1,1.303016E1,3.174783E-1,3.4116704E-3,2.5432688E-1,7.13209E-2,1.5331748E0,8.418401E-2,1.2624848E-1,5.308457E-1,2.3800099E-1,6.4351234E0,5.8607154E0,1.2990252E0,9.437259E-1,1.7422272E0,9.587166E-2,8.736255E-3,5.3727794E-3,8.714952E-1,4.9856966E-3,4.6124067E-2,1.8221375E-1,8.6001074E-1,2.5646222E-1,2.5345457E-1,3.7945873E-1,2.1668744E-1,3.8329187E-1,5.5154735E-1,1.0056334E0,-3.7859034E-2,4.8971646E-2,1.3984294E-1,-8.546603E-3,1.0852883E-1,-7.355684E-2,3.854659E-2,7.909738E-2,2.9501647E-2,1.29381E-1,-6.679403E-2,8.904932E-2,3.3336416E-2,1.151725E-1,8.48132E-2,2.4790477E-2,1.0370127E-2,6.711954E-2,5.4876644E-2,1.433312E-1,1.0966615E-2,8.0143444E-2,-2.4231631E-4,8.804144E-2,-5.6201924E-2,8.0120616E-2,8.823276E-3,1.0075962E-1,1.2106126E-1,-3.861796E-3,5.931762E-2,1.5894964E-1,-3.8084652E-2,1.2432276E-2,-3.439023E-3,-8.821903E-2,1.0191947E-1,-7.751018E-2,5.3522874E-2,1.9053638E-1,4.037634E-3,8.678404E-2,2.5970956E-2,1.5057044E-1,-1.05600275E-1,1.2923241E-2,-6.367951E-2,9.052195E-2,-5.8287002E-2,4.0162295E-2,-9.572512E-2,8.712957E-2,-4.5295443E-2,5.393542E-2,1.8502346E-1,5.430527E-3,3.676504E-2,-8.310556E-2,1.0545111E-2,-9.0911776E-2],"split_indices":[14,14,3,17,3,6,8,2,3,9,8,18,18,11,14,8,14,0,14,18,20,10,20,14,20,8,11,6,15,16,20,10,12,4,15,19,20,8,12,8,10,2,13,9,9,1,13,9,0,3,11,2,17,0,0,20,20,17,10,8,13,15,3,0,0,0,0,0,0,0,0,0,0,0,0,0,0,0,0,0,0,0,0,0,0,0,0,0,0,0,0,0,0,0,0,0,0,0,0,0,0,0,0,0,0,0,0,0,0,0,0,0,0,0,0,0,0,0,0,0,0,0,0],"split_type":[0,0,0,0,0,0,0,0,0,0,0,0,0,0,0,0,0,0,0,0,0,0,0,0,0,0,0,0,0,0,0,0,0,0,0,0,0,0,0,0,0,0,0,0,0,0,0,0,0,0,0,0,0,0,0,0,0,0,0,0,0,0,0,0,0,0,0,0,0,0,0,0,0,0,0,0,0,0,0,0,0,0,0,0,0,0,0,0,0,0,0,0,0,0,0,0,0,0,0,0,0,0,0,0,0,0,0,0,0,0,0,0,0,0,0,0,0,0,0,0,0,0,0],"sum_hessian":[7.760651E3,4.602726E3,3.1579248E3,1.8780547E3,2.7246711E3,5.5806396E2,2.5998608E3,9.731108E2,9.04944E2,1.5271968E3,1.1974744E3,4.4998907E2,1.08074905E2,2.4948457E3,1.0501513E2,1.24614265E2,8.484965E2,3.6660736E2,5.3833655E2,9.178203E2,6.093765E2,9.2684174E2,2.7063263E2,4.4190402E2,8.0850725E0,1.0208768E2,5.9872303E0,2.1229963E3,3.7184927E2,2.7831146E1,7.7183975E1,1.070597E2,1.7554564E1,1.8755228E2,6.609443E2,3.6357596E2,3.031402E0,3.1837396E2,2.199626E2,8.563066E2,6.1513706E1,1.1501511E2,4.943614E2,6.254649E2,3.0137683E2,1.186594E2,1.5197324E2,3.5835294E2,8.3551094E1,2.9059541E0,5.1791186E0,9.066357E1,1.14241085E1,1.1261258E0,4.8611045E0,2.098932E3,2.4064602E1,1.9574672E2,1.7610257E2,2.10537E1,6.7774477E0,4.5443027E1,3.1740952E1,7.436299E1,3.269671E1,1.4399383E1,3.1551807E0,1.8632883E2,1.2234535E0,2.9993274E2,3.6101154E2,1.790219E0,3.6178574E2,1.3733021E0,1.6581E0,1.0502647E1,3.0787134E2,1.7078339E2,4.9179207E1,6.662452E2,1.900614E2,1.7498444E1,4.4015263E1,7.977085E1,3.524425E1,2.2465677E1,4.7189572E2,6.0564905E2,1.9815874E1,2.775924E2,2.3784414E1,1.3848376E1,1.0481103E2,1.3685977E2,1.5113469E1,2.935127E2,6.484024E1,5.298184E0,7.825291E1,1.5972325E0,1.3087218E0,1.0736399E0,4.105479E0,7.510717E1,1.5556391E1,3.8255E0,7.598609E0,2.0950593E3,3.8726275E0,1.9919132E1,4.1454687E0,1.8388112E2,1.18656025E1,1.7505588E2,1.0466931E0,1.19060545E1,9.147645E0,3.3443007E0,3.433147E0,4.864242E0,4.0578785E1,2.6691881E1,5.049071E0],"tree_param":{"num_deleted":"0","num_feature":"21","num_nodes":"123","size_leaf_vector":"1"}},{"base_weights":[-4.5839764E-2,4.114554E-1,-8.5201067E-1,6.4868903E-1,9.273107E-3,-2.7391702E-1,-9.6551186E-1,4.6785158E-1,9.8399067E-1,-4.302804E-1,2.2227201E-1,-4.293879E-1,1.6467848E-1,-7.4803025E-1,-1.0385885E0,6.554179E-1,2.039769E-1,8.205589E-1,1.1761209E0,-6.595767E-1,-4.3913875E-2,1.0876232E-1,6.1433244E-1,-6.380297E-1,-9.8233484E-2,2.8451761E-2,1.4071803E0,-7.8641355E-1,6.442386E-1,-1.0471878E0,-5.148969E-1,9.6747434E-1,5.681058E-1,-5.220071E-1,2.9709977E-1,4.8156077E-1,9.621779E-1,1.1922688E0,2.4300544E-1,-9.182479E-1,-4.589647E-1,-3.3747292E-1,2.4406493E-1,8.6860615E-1,4.4410653E-2,4.574795E-1,1.0296749E0,-3.3432567E-1,-7.7560914E-1,-1.768975E-1,1.2936156E0,-5.2546966E-1,2.3778088E-1,5.831235E-1,1.9253736E0,-8.084026E-1,4.366079E-1,1.0704163E0,-6.7970556E-1,-1.0488461E0,3.2727562E-2,6.3349617E-1,-6.9189394E-1,-3.0850242E-3,1.0130989E-1,4.5993358E-2,8.8110276E-2,-7.4091256E-2,4.352636E-2,3.9856452E-2,-1.957727E-2,8.6291105E-2,2.2330223E-2,1.22812964E-1,8.849364E-2,4.8125133E-2,1.2146725E-1,7.538444E-2,-8.51998E-2,-9.494858E-2,1.8515259E-2,4.066678E-2,-5.4327972E-2,-4.2562436E-2,9.564235E-2,3.6795218E-3,6.267923E-2,6.453746E-2,1.5725324E-1,-2.3450043E-2,1.9134289E-2,2.8804323E-2,8.331334E-2,5.801552E-2,1.2521718E-1,-4.530402E-2,4.0582463E-2,3.3762604E-2,-8.294272E-2,-2.8573131E-2,6.376244E-2,-1.0004297E-3,1.5821481E-1,-7.4621096E-2,5.9395034E-2,4.599846E-2,-3.753347E-2,-3.359702E-2,1.2658508E-1,3.224287E-2,2.235895E-1,-9.2466764E-2,-5.944511E-2,-8.819228E-2,9.151059E-2,3.5790652E-2,2.3278487E-1,-8.060451E-3,-8.337348E-2,-1.066641E-1,-8.890524E-2,-6.343972E-2,1.3250627E-1,6.1555125E-2,-7.852059E-2],"categories":[],"categories_nodes":[],"categories_segments":[],"categories_sizes":[],"default_left":[1,0,0,0,0,1,0,0,0,0,0,0,0,0,1,0,1,1,0,1,0,1,0,0,1,0,0,1,0,1,0,0,0,1,0,0,0,0,0,1,0,0,0,0,1,1,0,0,0,0,0,0,0,0,0,1,0,0,0,1,0,0,0,0,0,0,0,0,0,0,0,0,0,0,0,0,0,0,0,0,0,0,0,0,0,0,0,0,0,0,0,0,0,0,0,0,0,0,0,0,0,0,0,0,0,0,0,0,0,0,0,0,0,0,0,0,0,0,0,0,0,0,0,0,0],"id":11,"left_children":[1,3,5,7,9,11,13,15,17,19,21,23,25,27,29,31,33,35,37,39,41,43,45,47,49,51,53,55,57,59,61,63,65,67,69,71,73,75,77,79,81,83,85,87,89,91,93,95,97,99,101,103,105,107,109,111,113,115,117,119,-1,121,123,-1,-1,-1,-1,-1,-1,-1,-1,-1,-1,-1,-1,-1,-1,-1,-1,-1,-1,-1,-1,-1,-1,-1,-1,-1,-1,-1,-1,-1,-1,-1,-1,-1,-1,-1,-1,-1,-1,-1,-1,-1,-1,-1,-1,-1,-1,-1,-1,-1,-1,-1,-1,-1,-1,-1,-1,-1,-1,-1,-1,-1,-1],"loss_changes":[2.7565427E3,4.5520184E2,1.7730518E2,1.8149817E2,1.6591733E2,3.0451275E1,3.51687E1,9.6447815E1,3.202063E1,5.121782E1,5.3055195E1,2.2683552E1,1.9818163E1,3.1096222E1,7.072754E0,3.0515503E1,5.506564E1,2.6947205E1,6.95105E0,1.8412704E1,1.8385878E1,4.5283943E1,1.6974731E1,8.171928E0,1.4290374E1,1.2502899E1,3.8185444E0,1.5345886E1,9.702871E0,4.131714E0,6.3887544E0,1.1320145E1,2.9840271E1,1.9748432E1,3.6110405E1,1.6573605E1,7.165344E0,6.935974E0,5.917473E0,5.6056366E0,1.528611E1,1.2683916E1,8.693017E0,1.0348801E1,3.5107307E1,1.224678E1,6.535553E0,5.866016E0,8.55484E0,1.1036097E1,2.6452236E0,7.7547216E0,1.0821138E1,4.1285944E0,2.59894E0,1.3082062E1,7.428996E0,1.0295971E1,3.466866E-1,3.7728271E0,0E0,4.726277E0,3.636218E0,0E0,0E0,0E0,0E0,0E0,0E0,0E0,0E0,0E0,0E0,0E0,0E0,0E0,0E0,0E0,0E0,0E0,0E0,0E0,0E0,0E0,0E0,0E0,0E0,0E0,0E0,0E0,0E0,0E0,0E0,0E0,0E0,0E0,0E0,0E0,0E0,0E0,0E0,0E0,0E0,0E0,0E0,0E0,0E0,0E0,0E0,0E0,0E0,0E0,0E0,0E0,0E0,0E0,0E0,0E0,0E0,0E0,0E0,0E0,0E0,0E0,0E0],"parents":[2147483647,0,0,1,1,2,2,3,3,4,4,5,5,6,6,7,7,8,8,9,9,10,10,11,11,12,12,13,13,14,14,15,15,16,16,17,17,18,18,19,19,20,20,21,21,22,22,23,23,24,24,25,25,26,26,27,27,28,28,29,29,30,30,31,31,32,32,33,33,34,34,35,35,36,36,37,37,38,38,39,39,40,40,41,41,42,42,43,43,44,44,45,45,46,46,47,47,48,48,49,49,50,50,51,51,52,52,53,53,54,54,55,55,56,56,57,57,58,58,59,59,61,61,62,62],"right_children":[2,4,6,8,10,12,14,16,18,20,22,24,26,28,30,32,34,36,38,40,42,44,46,48,50,52,54,56,58,60,62,64,66,68,70,72,74,76,78,80,82,84,86,88,90,92,94,96,98,100,102,104,106,108,110,112,114,116,118,120,-1,122,124,-1,-1,-1,-1,-1,-1,-1,-1,-1,-1,-1,-1,-1,-1,-1,-1,-1,-1,-1,-1,-1,-1,-1,-1,-1,-1,-1,-1,-1,-1,-1,-1,-1,-1,-1,-1,-1,-1,-1,-1,-1,-1,-1,-1,-1,-1,-1,-1,-1,-1,-1,-1,-1,-1,-1,-1,-1,-1,-1,-1,-1,-1],"split_conditions":[6.3339204E-1,4.64702E-1,2.1570918E-1,5.013079E-1,4.8567597E-2,2.4511881E-1,6.769848E-1,1.0173527E-1,5.0993776E-1,1.6689566E-1,3.63151E-1,2.9261863E-1,9.525509E-3,2.5494903E-1,1.764642E-2,1.9798363E-2,1.4583081E-1,1.8933895E-1,1.1650319E1,2.4811338E-1,2.3930721E-1,1.51893785E-2,5.2970344E-1,1.4383501E-1,5.5266544E-2,1.7333424E-1,3.5335517E-1,5.029957E-1,1.0613438E1,1.0012635E0,1.1013133E-3,2.0509472E-2,2.9060774E0,1.664975E-1,2.3042383E0,2.6333517E-1,2.05422E-2,1.7509224E-3,1.5331748E0,4.939605E-1,1.8058856E-3,5.022934E-1,5.0570434E-1,9.685859E-3,1.2624848E-1,7.027616E-1,2.1423136E-1,1.0321969E-1,4.673443E-1,9.186075E-1,3.5502128E-3,1.7649457E0,6.991423E-1,7.141993E-3,6.106844E-1,1.7234387E-1,4.3407087E0,6.973061E-1,6.7104823E-3,2.2972451E-1,3.2727562E-2,1.20260164E-1,1.0041215E0,-3.0850242E-3,1.0130989E-1,4.5993358E-2,8.8110276E-2,-7.4091256E-2,4.352636E-2,3.9856452E-2,-1.957727E-2,8.6291105E-2,2.2330223E-2,1.22812964E-1,8.849364E-2,4.8125133E-2,1.2146725E-1,7.538444E-2,-8.51998E-2,-9.494858E-2,1.8515259E-2,4.066678E-2,-5.4327972E-2,-4.2562436E-2,9.564235E-2,3.6795218E-3,6.267923E-2,6.453746E-2,1.5725324E-1,-2.3450043E-2,1.9134289E-2,2.8804323E-2,8.331334E-2,5.801552E-2,1.2521718E-1,-4.530402E-2,4.0582463E-2,3.3762604E-2,-8.294272E-2,-2.8573131E-2,6.376244E-2,-1.0004297E-3,1.5821481E-1,-7.4621096E-2,5.9395034E-2,4.599846E-2,-3.753347E-2,-3.359702E-2,1.2658508E-1,3.224287E-2,2.235895E-1,-9.2466764E-2,-5.944511E-2,-8.819228E-2,9.151059E-2,3.5790652E-2,2.3278487E-1,-8.060451E-3,-8.337348E-2,-1.066641E-1,-8.890524E-2,-6.343972E-2,1.3250627E-1,6.1555125E-2,-7.852059E-2],"split_indices":[14,14,3,17,2,20,16,3,17,19,20,6,18,17,8,3,13,20,4,13,20,3,5,0,8,13,20,7,4,7,18,5,9,8,12,14,3,18,12,20,5,17,16,18,10,13,12,0,16,2,18,9,16,17,15,20,1,15,11,20,0,19,1,0,0,0,0,0,0,0,0,0,0,0,0,0,0,0,0,0,0,0,0,0,0,0,0,0,0,0,0,0,0,0,0,0,0,0,0,0,0,0,0,0,0,0,0,0,0,0,0,0,0,0,0,0,0,0,0,0,0,0,0,0,0],"split_type":[0,0,0,0,0,0,0,0,0,0,0,0,0,0,0,0,0,0,0,0,0,0,0,0,0,0,0,0,0,0,0,0,0,0,0,0,0,0,0,0,0,0,0,0,0,0,0,0,0,0,0,0,0,0,0,0,0,0,0,0,0,0,0,0,0,0,0,0,0,0,0,0,0,0,0,0,0,0,0,0,0,0,0,0,0,0,0,0,0,0,0,0,0,0,0,0,0,0,0,0,0,0,0,0,0,0,0,0,0,0,0,0,0,0,0,0,0,0,0,0,0,0,0,0,0],"sum_hessian":[7.475282E3,4.770013E3,2.705269E3,2.999876E3,1.7701373E3,4.4453577E2,2.2607334E3,1.9503783E3,1.0494976E3,5.774556E2,1.1926818E3,3.2821347E2,1.16322296E2,5.714102E2,1.6893231E3,1.1391608E3,8.112176E2,5.6995087E2,4.7954675E2,3.6194534E2,2.1551025E2,9.258936E2,2.6678815E2,2.0078404E2,1.27429436E2,1.0575078E2,1.0571516E1,5.565032E2,1.4907018E1,1.6610485E3,2.8274723E1,2.4684555E2,8.923152E2,9.1702354E1,7.1951526E2,1.6923875E2,4.007121E2,4.7111615E2,8.430601E0,1.5653293E2,2.0541241E2,1.0663604E2,1.0887422E2,7.131625E1,8.545774E2,1.9518028E2,7.160786E1,6.3668064E1,1.3711598E2,1.214389E2,5.990534E0,2.858901E1,7.7161766E1,4.901773E0,5.669743E0,5.470074E2,9.495787E0,1.1421825E1,3.485192E0,1.6592833E3,1.7651552E0,3.4314744E0,2.484325E1,1.080223E1,2.3604332E2,6.649699E2,2.2734528E2,7.481901E1,1.6883343E1,5.9683887E2,1.2267636E2,6.738916E1,1.01849594E2,8.683365E1,3.1387845E2,1.5077801E1,4.5603836E2,5.961168E0,2.4694328E0,1.5235904E2,4.1738787E0,1.789256E1,1.8751985E2,1.004627E2,6.173338E0,7.133708E1,3.753714E1,5.560076E1,1.5715495E1,2.9465625E2,5.5992114E2,1.3572786E2,5.945241E1,2.4902927E1,4.670493E1,5.5201992E1,8.466073E0,6.07984E0,1.3103615E2,1.0769786E2,1.3741044E1,1.2605525E0,4.7299814E0,2.4158524E1,4.4304857E0,5.6819244E1,2.0342522E1,2.305708E0,2.596065E0,1.2508854E0,4.418858E0,3.522608E2,1.947466E2,2.3039644E0,7.1918225E0,8.11065E0,3.311175E0,1.0243312E0,2.4608607E0,1.4879127E3,1.7137051E2,1.2402714E0,2.1912029E0,1.2821157E0,2.3561134E1],"tree_param":{"num_deleted":"0","num_feature":"21","num_nodes":"125","size_leaf_vector":"1"}},{"base_weights":[-4.6440426E-2,3.9835575E-1,-7.766997E-1,9.134233E-1,2.3966613E-1,-9.4869214E-1,-2.5246897E-1,6.9012266E-1,1.0638112E0,-1.4923961E-1,3.8924402E-1,-7.6790375E-1,-1.041783E0,-1.1277234E-1,-8.088858E-1,7.88938E-1,2.7441776E-1,1.0736867E0,-8.3361275E-2,9.947511E-2,-5.601886E-1,2.2462411E-1,6.075008E-1,-9.0933424E-1,-5.561863E-1,-8.667133E-2,-1.0444455E0,8.022021E-1,-1.7218179E-1,8.920208E-2,-8.7776655E-1,1.1354144E0,6.967878E-1,-3.3164257E-1,5.2821827E-1,9.404308E-1,1.1529268E0,-1.08476125E-1,6.3624233E-1,-4.2078584E-1,2.235129E-1,-8.552539E-1,-3.1859976E-1,2.6225587E-2,4.5613217E-1,1.1714803E0,5.449986E-1,-7.761262E-1,-1.0407046E0,-6.040138E-1,4.261703E-1,1.1264175E-1,-8.2527526E-2,-1.0458657E0,1.7027458E-2,-6.474636E-1,1.0202194E0,-3.661966E-1,6.8884686E-2,-7.192216E-1,7.0953256E-1,-9.163274E-1,1.5565787E-1,-8.866979E-5,1.1676978E-1,5.188737E-2,8.7671794E-2,2.9184962E-2,-7.198076E-2,7.033594E-2,-3.710682E-2,4.7476184E-2,1.012854E-1,5.7056166E-2,1.176573E-1,-2.4352428E-3,9.998936E-2,-4.9715616E-2,1.3461801E-1,-2.9286882E-2,3.4591846E-2,-8.713742E-2,7.59896E-2,-4.058845E-2,4.2973842E-2,-9.336253E-3,5.822705E-2,3.575581E-2,8.832059E-2,-2.341136E-2,1.1875103E-1,4.462395E-2,9.188863E-2,4.970185E-2,-7.949146E-2,-1.0450976E-1,-9.341671E-3,-6.7425676E-2,1.6904963E-2,-9.916587E-3,1.17677346E-1,-1.0490813E-1,-4.3334138E-2,-9.557412E-2,2.4455963E-2,6.0785115E-2,1.587467E-1,-5.724014E-2,-8.860251E-3,-6.622985E-3,5.330472E-2,-8.578177E-2,-7.965699E-3,1.46751E-1,-7.5506024E-2,1.8565126E-2,-9.301508E-2,1.388634E-1,-8.5037015E-2],"categories":[],"categories_nodes":[],"categories_segments":[],"categories_sizes":[],"default_left":[1,0,0,0,0,0,0,0,0,0,1,1,0,0,0,0,0,0,0,0,1,0,0,0,1,0,1,0,0,0,0,1,0,0,0,0,0,0,0,0,0,1,0,0,0,0,0,0,0,0,0,0,0,0,0,0,0,0,0,1,0,0,0,0,0,0,0,0,0,0,0,0,0,0,0,0,0,0,0,0,0,0,0,0,0,0,0,0,0,0,0,0,0,0,0,0,0,0,0,0,0,0,0,0,0,0,0,0,0,0,0,0,0,0,0,0,0,0,0],"id":12,"left_children":[1,3,5,7,9,11,13,15,17,19,21,23,25,27,29,31,33,35,37,39,41,43,45,47,49,51,53,55,57,59,61,63,65,67,69,71,73,-1,75,77,79,81,83,85,87,89,91,93,95,97,99,-1,-1,101,-1,103,105,107,109,111,113,115,117,-1,-1,-1,-1,-1,-1,-1,-1,-1,-1,-1,-1,-1,-1,-1,-1,-1,-1,-1,-1,-1,-1,-1,-1,-1,-1,-1,-1,-1,-1,-1,-1,-1,-1,-1,-1,-1,-1,-1,-1,-1,-1,-1,-1,-1,-1,-1,-1,-1,-1,-1,-1,-1,-1,-1,-1],"loss_changes":[2.342467E3,3.6611194E2,2.4589148E2,3.470331E1,1.9944885E2,3.3786743E1,5.243285E1,1.734549E1,7.2124023E0,9.744412E1,8.881723E1,2.052417E1,3.352295E0,2.9561344E1,8.456978E0,1.0220322E1,1.3040776E1,5.4987183E0,5.225884E0,3.845411E1,2.5347206E1,6.488363E1,3.686371E1,6.53302E0,1.3593536E1,5.2785597E0,2.506836E0,1.114702E1,2.3836304E1,5.803991E0,5.1592255E0,2.600731E0,8.349014E0,6.3336854E0,9.607035E0,7.542618E0,4.6515503E0,0E0,1.0555795E0,1.6158781E1,3.0482195E1,4.8592834E0,1.3185917E1,5.0719086E1,2.71315E1,2.6499481E0,3.5023804E1,5.4713364E0,7.690582E-1,1.483432E1,5.544178E0,0E0,0E0,2.201294E0,0E0,1.5947592E0,5.8724327E0,1.6105015E1,1.4325928E1,3.8194156E-1,8.297447E0,2.0235825E0,7.8581715E0,0E0,0E0,0E0,0E0,0E0,0E0,0E0,0E0,0E0,0E0,0E0,0E0,0E0,0E0,0E0,0E0,0E0,0E0,0E0,0E0,0E0,0E0,0E0,0E0,0E0,0E0,0E0,0E0,0E0,0E0,0E0,0E0,0E0,0E0,0E0,0E0,0E0,0E0,0E0,0E0,0E0,0E0,0E0,0E0,0E0,0E0,0E0,0E0,0E0,0E0,0E0,0E0,0E0,0E0,0E0,0E0],"parents":[2147483647,0,0,1,1,2,2,3,3,4,4,5,5,6,6,7,7,8,8,9,9,10,10,11,11,12,12,13,13,14,14,15,15,16,16,17,17,18,18,19,19,20,20,21,21,22,22,23,23,24,24,25,25,26,26,27,27,28,28,29,29,30,30,31,31,32,32,33,33,34,34,35,35,36,36,38,38,39,39,40,40,41,41,42,42,43,43,44,44,45,45,46,46,47,47,48,48,49,49,50,50,53,53,55,55,56,56,57,57,58,58,59,59,60,60,61,61,62,62],"right_children":[2,4,6,8,10,12,14,16,18,20,22,24,26,28,30,32,34,36,38,40,42,44,46,48,50,52,54,56,58,60,62,64,66,68,70,72,74,-1,76,78,80,82,84,86,88,90,92,94,96,98,100,-1,-1,102,-1,104,106,108,110,112,114,116,118,-1,-1,-1,-1,-1,-1,-1,-1,-1,-1,-1,-1,-1,-1,-1,-1,-1,-1,-1,-1,-1,-1,-1,-1,-1,-1,-1,-1,-1,-1,-1,-1,-1,-1,-1,-1,-1,-1,-1,-1,-1,-1,-1,-1,-1,-1,-1,-1,-1,-1,-1,-1,-1,-1,-1,-1],"split_conditions":[6.095219E-1,2.6333517E-1,6.4177215E-2,2.5981012E-1,5.6165844E-2,7.823436E-1,8.233017E-1,3.4157094E-1,1.2510329E1,1.3277932E0,2.5717974E-1,1.6328162E-1,4.070767E-1,1.0347568E-2,1.0096486E-1,9.245549E-2,3.5745642E-1,5.080644E-1,6.9673924E0,1.6601728E-1,2.6041644E-2,2.5646222E-1,1.2675026E-2,1.0055716E1,1.6834536E-1,8.260075E-1,2.5287786E-1,2.0071454E-3,1.9683506E-1,1.3323319E-1,6.1693054E-1,1.3551688E-1,1.6469643E-1,4.072888E0,2.4846137E-1,5.4037906E-2,3.0079116E-3,-1.08476125E-1,2.0795565E0,9.994442E-3,9.84042E-2,9.7899103E-1,3.2742986E-1,2.5555685E0,5.7765657E-1,3.7084275E-1,3.455803E0,3.625447E-1,5.036842E-1,3.3369434E0,5.8168215E-1,1.1264175E-1,-8.2527526E-2,2.5494903E-1,1.7027458E-2,3.7444696E-1,3.7444696E-1,3.0423418E-1,1.616059E0,9.968654E-3,6.228584E-2,5.0192213E-1,9.418168E-2,-8.866979E-5,1.1676978E-1,5.188737E-2,8.7671794E-2,2.9184962E-2,-7.198076E-2,7.033594E-2,-3.710682E-2,4.7476184E-2,1.012854E-1,5.7056166E-2,1.176573E-1,-2.4352428E-3,9.998936E-2,-4.9715616E-2,1.3461801E-1,-2.9286882E-2,3.4591846E-2,-8.713742E-2,7.59896E-2,-4.058845E-2,4.2973842E-2,-9.336253E-3,5.822705E-2,3.575581E-2,8.832059E-2,-2.341136E-2,1.1875103E-1,4.462395E-2,9.188863E-2,4.970185E-2,-7.949146E-2,-1.0450976E-1,-9.341671E-3,-6.7425676E-2,1.6904963E-2,-9.916587E-3,1.17677346E-1,-1.0490813E-1,